digraph Tree {
node [shape=box, style="filled, rounded", color="black", fontname=helvetica] ;
edge [fontname=helvetica] ;
0 [label="weight_in_gms <= 0.44\ngini = 0.5\nsamples = 4774\nvalue = [3714.74, 3731.28]\nclass = 1", fillcolor="#feffff"] ;
1 [label="cost_of_the_product <= 0.57\ngini = 0.41\nsamples = 2152\nvalue = [898.18, 2214.2]\nclass = 1", fillcolor="#89c5f0"] ;
0 -> 1 [labeldistance=2.5, labelangle=45, headlabel="True"] ;
2 [label="prior_purchases <= 0.25\ngini = 0.09\nsamples = 919\nvalue = [56.14, 1179.95]\nclass = 1", fillcolor="#42a2e6"] ;
1 -> 2 ;
3 [label="cost_of_the_product <= 0.55\ngini = 0.06\nsamples = 674\nvalue = [28.07, 885.17]\nclass = 1", fillcolor="#3fa0e6"] ;
2 -> 3 ;
4 [label="warehouse_block_D <= 0.5\ngini = 0.05\nsamples = 646\nvalue = [21.97, 853.83]\nclass = 1", fillcolor="#3ea0e6"] ;
3 -> 4 ;
5 [label="cost_of_the_product <= 0.19\ngini = 0.06\nsamples = 552\nvalue = [21.97, 724.23]\nclass = 1", fillcolor="#3fa0e6"] ;
4 -> 5 ;
6 [label="discount_offered <= 0.06\ngini = 0.18\nsamples = 64\nvalue = [8.54, 77.08]\nclass = 1", fillcolor="#4fa8e8"] ;
5 -> 6 ;
7 [label="gini = 0.0\nsamples = 3\nvalue = [8.54, 0.0]\nclass = [", fillcolor="#e58139"] ;
6 -> 7 ;
8 [label="gini = -0.0\nsamples = 61\nvalue = [0.0, 77.08]\nclass = 1", fillcolor="#399de5"] ;
6 -> 8 ;
9 [label="discount_offered <= 0.14\ngini = 0.04\nsamples = 488\nvalue = [13.42, 647.15]\nclass = 1", fillcolor="#3d9fe6"] ;
5 -> 9 ;
10 [label="weight_in_gms <= 0.44\ngini = 0.19\nsamples = 86\nvalue = [13.42, 110.96]\nclass = 1", fillcolor="#51a9e8"] ;
9 -> 10 ;
11 [label="discount_offered <= 0.08\ngini = 0.18\nsamples = 85\nvalue = [12.2, 110.96]\nclass = 1", fillcolor="#4fa8e8"] ;
10 -> 11 ;
12 [label="weight_in_gms <= 0.1\ngini = 0.06\nsamples = 50\nvalue = [2.44, 76.23]\nclass = 1", fillcolor="#3fa0e6"] ;
11 -> 12 ;
13 [label="cost_of_the_product <= 0.46\ngini = 0.12\nsamples = 24\nvalue = [2.44, 36.42]\nclass = 1", fillcolor="#46a4e7"] ;
12 -> 13 ;
14 [label="weight_in_gms <= 0.1\ngini = 0.06\nsamples = 23\nvalue = [1.22, 36.42]\nclass = 1", fillcolor="#40a0e6"] ;
13 -> 14 ;
15 [label="prior_purchases <= 0.08\ngini = 0.0\nsamples = 22\nvalue = [0.0, 36.42]\nclass = 1", fillcolor="#399de5"] ;
14 -> 15 ;
16 [label="gini = 0.0\nsamples = 8\nvalue = [0.0, 11.86]\nclass = 1", fillcolor="#399de5"] ;
15 -> 16 ;
17 [label="gini = 0.0\nsamples = 14\nvalue = [0.0, 24.56]\nclass = 1", fillcolor="#399de5"] ;
15 -> 17 ;
18 [label="gini = -0.0\nsamples = 1\nvalue = [1.22, 0.0]\nclass = [", fillcolor="#e58139"] ;
14 -> 18 ;
19 [label="gini = -0.0\nsamples = 1\nvalue = [1.22, 0.0]\nclass = [", fillcolor="#e58139"] ;
13 -> 19 ;
20 [label="gini = 0.0\nsamples = 26\nvalue = [0.0, 39.81]\nclass = 1", fillcolor="#399de5"] ;
12 -> 20 ;
21 [label="customer_rating <= 0.38\ngini = 0.34\nsamples = 35\nvalue = [9.76, 34.73]\nclass = 1", fillcolor="#71b9ec"] ;
11 -> 21 ;
22 [label="mode_of_shipment_Road <= 0.5\ngini = 0.45\nsamples = 18\nvalue = [8.54, 16.09]\nclass = 1", fillcolor="#a2d1f3"] ;
21 -> 22 ;
23 [label="prior_purchases <= 0.08\ngini = 0.47\nsamples = 16\nvalue = [8.54, 14.4]\nclass = 1", fillcolor="#aed7f4"] ;
22 -> 23 ;
24 [label="discount_offered <= 0.11\ngini = 0.5\nsamples = 7\nvalue = [6.1, 5.93]\nclass = [", fillcolor="#fefbf9"] ;
23 -> 24 ;
25 [label="cost_of_the_product <= 0.43\ngini = 0.41\nsamples = 5\nvalue = [2.44, 5.93]\nclass = 1", fillcolor="#8bc5f0"] ;
24 -> 25 ;
26 [label="gini = 0.0\nsamples = 4\nvalue = [0.0, 5.93]\nclass = 1", fillcolor="#399de5"] ;
25 -> 26 ;
27 [label="gini = -0.0\nsamples = 1\nvalue = [2.44, 0.0]\nclass = [", fillcolor="#e58139"] ;
25 -> 27 ;
28 [label="gini = -0.0\nsamples = 2\nvalue = [3.66, 0.0]\nclass = [", fillcolor="#e58139"] ;
24 -> 28 ;
29 [label="customer_care_calls <= 0.1\ngini = 0.35\nsamples = 9\nvalue = [2.44, 8.47]\nclass = 1", fillcolor="#72b9ec"] ;
23 -> 29 ;
30 [label="gini = 0.0\nsamples = 1\nvalue = [1.22, 0.0]\nclass = [", fillcolor="#e58139"] ;
29 -> 30 ;
31 [label="customer_care_calls <= 0.3\ngini = 0.22\nsamples = 8\nvalue = [1.22, 8.47]\nclass = 1", fillcolor="#56abe9"] ;
29 -> 31 ;
32 [label="gini = 0.0\nsamples = 4\nvalue = [0.0, 5.08]\nclass = 1", fillcolor="#399de5"] ;
31 -> 32 ;
33 [label="cost_of_the_product <= 0.35\ngini = 0.39\nsamples = 4\nvalue = [1.22, 3.39]\nclass = 1", fillcolor="#80c0ee"] ;
31 -> 33 ;
34 [label="gini = 0.0\nsamples = 1\nvalue = [1.22, 0.0]\nclass = [", fillcolor="#e58139"] ;
33 -> 34 ;
35 [label="gini = 0.0\nsamples = 3\nvalue = [0.0, 3.39]\nclass = 1", fillcolor="#399de5"] ;
33 -> 35 ;
36 [label="discount_offered <= 0.12\ngini = 0.0\nsamples = 2\nvalue = [0.0, 1.69]\nclass = 1", fillcolor="#399de5"] ;
22 -> 36 ;
37 [label="gini = 0.0\nsamples = 1\nvalue = [0.0, 0.85]\nclass = 1", fillcolor="#399de5"] ;
36 -> 37 ;
38 [label="gini = 0.0\nsamples = 1\nvalue = [0.0, 0.85]\nclass = 1", fillcolor="#399de5"] ;
36 -> 38 ;
39 [label="customer_care_calls <= 0.5\ngini = 0.12\nsamples = 17\nvalue = [1.22, 18.64]\nclass = 1", fillcolor="#46a3e7"] ;
21 -> 39 ;
40 [label="gini = 0.0\nsamples = 15\nvalue = [0.0, 17.79]\nclass = 1", fillcolor="#399de5"] ;
39 -> 40 ;
41 [label="cost_of_the_product <= 0.34\ngini = 0.48\nsamples = 2\nvalue = [1.22, 0.85]\nclass = [", fillcolor="#f7d8c2"] ;
39 -> 41 ;
42 [label="gini = 0.0\nsamples = 1\nvalue = [1.22, 0.0]\nclass = [", fillcolor="#e58139"] ;
41 -> 42 ;
43 [label="gini = 0.0\nsamples = 1\nvalue = [0.0, 0.85]\nclass = 1", fillcolor="#399de5"] ;
41 -> 43 ;
44 [label="gini = 0.0\nsamples = 1\nvalue = [1.22, 0.0]\nclass = [", fillcolor="#e58139"] ;
10 -> 44 ;
45 [label="weight_in_gms <= 0.0\ngini = 0.0\nsamples = 402\nvalue = [0.0, 536.19]\nclass = 1", fillcolor="#399de5"] ;
9 -> 45 ;
46 [label="gini = 0.0\nsamples = 1\nvalue = [0.0, 2.54]\nclass = 1", fillcolor="#399de5"] ;
45 -> 46 ;
47 [label="gini = 0.0\nsamples = 401\nvalue = [0.0, 533.64]\nclass = 1", fillcolor="#399de5"] ;
45 -> 47 ;
48 [label="gini = 0.0\nsamples = 94\nvalue = [0.0, 129.6]\nclass = 1", fillcolor="#399de5"] ;
4 -> 48 ;
49 [label="product_importance_low <= 0.5\ngini = 0.27\nsamples = 28\nvalue = [6.1, 31.34]\nclass = 1", fillcolor="#60b0ea"] ;
3 -> 49 ;
50 [label="customer_rating <= 0.38\ngini = 0.46\nsamples = 12\nvalue = [6.1, 11.01]\nclass = 1", fillcolor="#a7d3f3"] ;
49 -> 50 ;
51 [label="cost_of_the_product <= 0.55\ngini = 0.43\nsamples = 3\nvalue = [3.66, 1.69]\nclass = [", fillcolor="#f1bb95"] ;
50 -> 51 ;
52 [label="gini = 0.0\nsamples = 1\nvalue = [3.66, 0.0]\nclass = [", fillcolor="#e58139"] ;
51 -> 52 ;
53 [label="gini = -0.0\nsamples = 2\nvalue = [0.0, 1.69]\nclass = 1", fillcolor="#399de5"] ;
51 -> 53 ;
54 [label="prior_purchases <= 0.08\ngini = 0.33\nsamples = 9\nvalue = [2.44, 9.32]\nclass = 1", fillcolor="#6db7ec"] ;
50 -> 54 ;
55 [label="gini = 0.0\nsamples = 4\nvalue = [0.0, 5.08]\nclass = 1", fillcolor="#399de5"] ;
54 -> 55 ;
56 [label="weight_in_gms <= 0.44\ngini = 0.46\nsamples = 5\nvalue = [2.44, 4.24]\nclass = 1", fillcolor="#abd5f4"] ;
54 -> 56 ;
57 [label="gini = 0.0\nsamples = 4\nvalue = [0.0, 4.24]\nclass = 1", fillcolor="#399de5"] ;
56 -> 57 ;
58 [label="gini = -0.0\nsamples = 1\nvalue = [2.44, 0.0]\nclass = [", fillcolor="#e58139"] ;
56 -> 58 ;
59 [label="mode_of_shipment_Road <= 0.5\ngini = 0.0\nsamples = 16\nvalue = [0.0, 20.33]\nclass = 1", fillcolor="#399de5"] ;
49 -> 59 ;
60 [label="gini = 0.0\nsamples = 15\nvalue = [0.0, 19.48]\nclass = 1", fillcolor="#399de5"] ;
59 -> 60 ;
61 [label="gini = 0.0\nsamples = 1\nvalue = [0.0, 0.85]\nclass = 1", fillcolor="#399de5"] ;
59 -> 61 ;
62 [label="discount_offered <= 0.16\ngini = 0.16\nsamples = 245\nvalue = [28.07, 294.78]\nclass = 1", fillcolor="#4ca6e7"] ;
2 -> 62 ;
63 [label="customer_care_calls <= 0.1\ngini = 0.39\nsamples = 75\nvalue = [28.07, 77.93]\nclass = 1", fillcolor="#80c0ee"] ;
62 -> 63 ;
64 [label="mode_of_shipment_Road <= 0.5\ngini = 0.44\nsamples = 9\nvalue = [8.54, 4.24]\nclass = [", fillcolor="#f2bf9b"] ;
63 -> 64 ;
65 [label="product_importance_low <= 0.5\ngini = 0.35\nsamples = 7\nvalue = [8.54, 2.54]\nclass = [", fillcolor="#eda674"] ;
64 -> 65 ;
66 [label="cost_of_the_product <= 0.36\ngini = 0.5\nsamples = 4\nvalue = [2.44, 2.54]\nclass = 1", fillcolor="#f7fbfe"] ;
65 -> 66 ;
67 [label="gini = 0.0\nsamples = 2\nvalue = [0.0, 1.69]\nclass = 1", fillcolor="#399de5"] ;
66 -> 67 ;
68 [label="discount_offered <= 0.03\ngini = 0.38\nsamples = 2\nvalue = [2.44, 0.85]\nclass = [", fillcolor="#eead7e"] ;
66 -> 68 ;
69 [label="gini = 0.0\nsamples = 1\nvalue = [0.0, 0.85]\nclass = 1", fillcolor="#399de5"] ;
68 -> 69 ;
70 [label="gini = -0.0\nsamples = 1\nvalue = [2.44, 0.0]\nclass = [", fillcolor="#e58139"] ;
68 -> 70 ;
71 [label="gini = -0.0\nsamples = 3\nvalue = [6.1, 0.0]\nclass = [", fillcolor="#e58139"] ;
65 -> 71 ;
72 [label="gini = -0.0\nsamples = 2\nvalue = [0.0, 1.69]\nclass = 1", fillcolor="#399de5"] ;
64 -> 72 ;
73 [label="discount_offered <= 0.03\ngini = 0.33\nsamples = 66\nvalue = [19.53, 73.69]\nclass = 1", fillcolor="#6db7ec"] ;
63 -> 73 ;
74 [label="gini = 0.0\nsamples = 7\nvalue = [0.0, 9.32]\nclass = 1", fillcolor="#399de5"] ;
73 -> 74 ;
75 [label="cost_of_the_product <= 0.26\ngini = 0.36\nsamples = 59\nvalue = [19.53, 64.38]\nclass = 1", fillcolor="#75bbed"] ;
73 -> 75 ;
76 [label="product_importance_low <= 0.5\ngini = 0.08\nsamples = 20\nvalue = [1.22, 28.8]\nclass = 1", fillcolor="#41a1e6"] ;
75 -> 76 ;
77 [label="weight_in_gms <= 0.11\ngini = 0.15\nsamples = 11\nvalue = [1.22, 13.55]\nclass = 1", fillcolor="#4ba6e7"] ;
76 -> 77 ;
78 [label="gini = 0.0\nsamples = 9\nvalue = [0.0, 10.16]\nclass = 1", fillcolor="#399de5"] ;
77 -> 78 ;
79 [label="prior_purchases <= 0.42\ngini = 0.39\nsamples = 2\nvalue = [1.22, 3.39]\nclass = 1", fillcolor="#80c0ee"] ;
77 -> 79 ;
80 [label="gini = 0.0\nsamples = 1\nvalue = [0.0, 3.39]\nclass = 1", fillcolor="#399de5"] ;
79 -> 80 ;
81 [label="gini = -0.0\nsamples = 1\nvalue = [1.22, 0.0]\nclass = [", fillcolor="#e58139"] ;
79 -> 81 ;
82 [label="gini = 0.0\nsamples = 9\nvalue = [0.0, 15.25]\nclass = 1", fillcolor="#399de5"] ;
76 -> 82 ;
83 [label="product_importance_high <= 0.5\ngini = 0.45\nsamples = 39\nvalue = [18.31, 35.58]\nclass = 1", fillcolor="#9fcff2"] ;
75 -> 83 ;
84 [label="customer_care_calls <= 0.3\ngini = 0.47\nsamples = 35\nvalue = [18.31, 29.65]\nclass = 1", fillcolor="#b3daf5"] ;
83 -> 84 ;
85 [label="discount_offered <= 0.04\ngini = 0.36\nsamples = 11\nvalue = [3.66, 11.86]\nclass = 1", fillcolor="#76bbed"] ;
84 -> 85 ;
86 [label="customer_rating <= 0.38\ngini = 0.5\nsamples = 4\nvalue = [3.66, 3.39]\nclass = [", fillcolor="#fdf6f0"] ;
85 -> 86 ;
87 [label="gini = 0.0\nsamples = 2\nvalue = [0.0, 3.39]\nclass = 1", fillcolor="#399de5"] ;
86 -> 87 ;
88 [label="gini = 0.0\nsamples = 2\nvalue = [3.66, 0.0]\nclass = [", fillcolor="#e58139"] ;
86 -> 88 ;
89 [label="gini = 0.0\nsamples = 7\nvalue = [0.0, 8.47]\nclass = 1", fillcolor="#399de5"] ;
85 -> 89 ;
90 [label="customer_rating <= 0.38\ngini = 0.5\nsamples = 24\nvalue = [14.64, 17.79]\nclass = 1", fillcolor="#dceefa"] ;
84 -> 90 ;
91 [label="cost_of_the_product <= 0.49\ngini = 0.43\nsamples = 7\nvalue = [7.32, 3.39]\nclass = [", fillcolor="#f1bb95"] ;
90 -> 91 ;
92 [label="gini = 0.0\nsamples = 4\nvalue = [7.32, 0.0]\nclass = [", fillcolor="#e58139"] ;
91 -> 92 ;
93 [label="gini = -0.0\nsamples = 3\nvalue = [0.0, 3.39]\nclass = 1", fillcolor="#399de5"] ;
91 -> 93 ;
94 [label="customer_rating <= 0.88\ngini = 0.45\nsamples = 17\nvalue = [7.32, 14.4]\nclass = 1", fillcolor="#9ecff2"] ;
90 -> 94 ;
95 [label="discount_offered <= 0.09\ngini = 0.33\nsamples = 13\nvalue = [3.66, 13.55]\nclass = 1", fillcolor="#6eb7ec"] ;
94 -> 95 ;
96 [label="weight_in_gms <= 0.24\ngini = 0.49\nsamples = 7\nvalue = [3.66, 5.08]\nclass = 1", fillcolor="#c8e4f8"] ;
95 -> 96 ;
97 [label="prior_purchases <= 0.42\ngini = 0.31\nsamples = 4\nvalue = [3.66, 0.85]\nclass = [", fillcolor="#eb9e67"] ;
96 -> 97 ;
98 [label="warehouse_block_D <= 0.5\ngini = 0.48\nsamples = 2\nvalue = [1.22, 0.85]\nclass = [", fillcolor="#f7d8c2"] ;
97 -> 98 ;
99 [label="gini = 0.0\nsamples = 1\nvalue = [1.22, 0.0]\nclass = [", fillcolor="#e58139"] ;
98 -> 99 ;
100 [label="gini = 0.0\nsamples = 1\nvalue = [0.0, 0.85]\nclass = 1", fillcolor="#399de5"] ;
98 -> 100 ;
101 [label="gini = -0.0\nsamples = 2\nvalue = [2.44, 0.0]\nclass = [", fillcolor="#e58139"] ;
97 -> 101 ;
102 [label="prior_purchases <= 0.42\ngini = 0.0\nsamples = 3\nvalue = [0.0, 4.24]\nclass = 1", fillcolor="#399de5"] ;
96 -> 102 ;
103 [label="gini = 0.0\nsamples = 1\nvalue = [0.0, 1.69]\nclass = 1", fillcolor="#399de5"] ;
102 -> 103 ;
104 [label="gini = 0.0\nsamples = 2\nvalue = [0.0, 2.54]\nclass = 1", fillcolor="#399de5"] ;
102 -> 104 ;
105 [label="prior_purchases <= 0.42\ngini = 0.0\nsamples = 6\nvalue = [0.0, 8.47]\nclass = 1", fillcolor="#399de5"] ;
95 -> 105 ;
106 [label="gini = 0.0\nsamples = 4\nvalue = [0.0, 5.08]\nclass = 1", fillcolor="#399de5"] ;
105 -> 106 ;
107 [label="gini = 0.0\nsamples = 2\nvalue = [0.0, 3.39]\nclass = 1", fillcolor="#399de5"] ;
105 -> 107 ;
108 [label="prior_purchases <= 0.42\ngini = 0.31\nsamples = 4\nvalue = [3.66, 0.85]\nclass = [", fillcolor="#eb9e67"] ;
94 -> 108 ;
109 [label="gini = 0.0\nsamples = 2\nvalue = [2.44, 0.0]\nclass = [", fillcolor="#e58139"] ;
108 -> 109 ;
110 [label="prior_purchases <= 0.58\ngini = 0.48\nsamples = 2\nvalue = [1.22, 0.85]\nclass = [", fillcolor="#f7d8c2"] ;
108 -> 110 ;
111 [label="gini = 0.0\nsamples = 1\nvalue = [0.0, 0.85]\nclass = 1", fillcolor="#399de5"] ;
110 -> 111 ;
112 [label="gini = 0.0\nsamples = 1\nvalue = [1.22, 0.0]\nclass = [", fillcolor="#e58139"] ;
110 -> 112 ;
113 [label="prior_purchases <= 0.42\ngini = 0.0\nsamples = 4\nvalue = [0.0, 5.93]\nclass = 1", fillcolor="#399de5"] ;
83 -> 113 ;
114 [label="gini = 0.0\nsamples = 1\nvalue = [0.0, 0.85]\nclass = 1", fillcolor="#399de5"] ;
113 -> 114 ;
115 [label="gini = 0.0\nsamples = 3\nvalue = [0.0, 5.08]\nclass = 1", fillcolor="#399de5"] ;
113 -> 115 ;
116 [label="prior_purchases <= 0.42\ngini = 0.0\nsamples = 170\nvalue = [0.0, 216.85]\nclass = 1", fillcolor="#399de5"] ;
62 -> 116 ;
117 [label="gini = 0.0\nsamples = 86\nvalue = [0.0, 114.35]\nclass = 1", fillcolor="#399de5"] ;
116 -> 117 ;
118 [label="gini = 0.0\nsamples = 84\nvalue = [0.0, 102.49]\nclass = 1", fillcolor="#399de5"] ;
116 -> 118 ;
119 [label="prior_purchases <= 0.25\ngini = 0.49\nsamples = 1233\nvalue = [842.04, 1034.25]\nclass = 1", fillcolor="#daedfa"] ;
1 -> 119 ;
120 [label="discount_offered <= 0.11\ngini = 0.04\nsamples = 348\nvalue = [8.54, 433.69]\nclass = 1", fillcolor="#3d9fe6"] ;
119 -> 120 ;
121 [label="warehouse_block_D <= 0.5\ngini = 0.22\nsamples = 54\nvalue = [8.54, 58.45]\nclass = 1", fillcolor="#56abe9"] ;
120 -> 121 ;
122 [label="customer_rating <= 0.88\ngini = 0.28\nsamples = 41\nvalue = [8.54, 42.35]\nclass = 1", fillcolor="#61b1ea"] ;
121 -> 122 ;
123 [label="weight_in_gms <= 0.15\ngini = 0.32\nsamples = 32\nvalue = [7.32, 29.65]\nclass = 1", fillcolor="#6ab5eb"] ;
122 -> 123 ;
124 [label="mode_of_shipment_Road <= 0.5\ngini = 0.38\nsamples = 6\nvalue = [4.88, 1.69]\nclass = [", fillcolor="#eead7e"] ;
123 -> 124 ;
125 [label="customer_rating <= 0.38\ngini = 0.31\nsamples = 4\nvalue = [3.66, 0.85]\nclass = [", fillcolor="#eb9e67"] ;
124 -> 125 ;
126 [label="customer_care_calls <= 0.6\ngini = 0.48\nsamples = 2\nvalue = [1.22, 0.85]\nclass = [", fillcolor="#f7d8c2"] ;
125 -> 126 ;
127 [label="gini = 0.0\nsamples = 1\nvalue = [1.22, 0.0]\nclass = [", fillcolor="#e58139"] ;
126 -> 127 ;
128 [label="gini = 0.0\nsamples = 1\nvalue = [0.0, 0.85]\nclass = 1", fillcolor="#399de5"] ;
126 -> 128 ;
129 [label="gini = 0.0\nsamples = 2\nvalue = [2.44, 0.0]\nclass = [", fillcolor="#e58139"] ;
125 -> 129 ;
130 [label="discount_offered <= 0.09\ngini = 0.48\nsamples = 2\nvalue = [1.22, 0.85]\nclass = [", fillcolor="#f7d8c2"] ;
124 -> 130 ;
131 [label="gini = 0.0\nsamples = 1\nvalue = [0.0, 0.85]\nclass = 1", fillcolor="#399de5"] ;
130 -> 131 ;
132 [label="gini = 0.0\nsamples = 1\nvalue = [1.22, 0.0]\nclass = [", fillcolor="#e58139"] ;
130 -> 132 ;
133 [label="prior_purchases <= 0.08\ngini = 0.15\nsamples = 26\nvalue = [2.44, 27.95]\nclass = 1", fillcolor="#4aa6e7"] ;
123 -> 133 ;
134 [label="product_importance_low <= 0.5\ngini = 0.33\nsamples = 8\nvalue = [2.44, 9.32]\nclass = 1", fillcolor="#6db7ec"] ;
133 -> 134 ;
135 [label="gini = 0.0\nsamples = 6\nvalue = [0.0, 6.78]\nclass = 1", fillcolor="#399de5"] ;
134 -> 135 ;
136 [label="customer_care_calls <= 0.3\ngini = 0.5\nsamples = 2\nvalue = [2.44, 2.54]\nclass = 1", fillcolor="#f7fbfe"] ;
134 -> 136 ;
137 [label="gini = 0.0\nsamples = 1\nvalue = [0.0, 2.54]\nclass = 1", fillcolor="#399de5"] ;
136 -> 137 ;
138 [label="gini = -0.0\nsamples = 1\nvalue = [2.44, 0.0]\nclass = [", fillcolor="#e58139"] ;
136 -> 138 ;
139 [label="gini = 0.0\nsamples = 18\nvalue = [0.0, 18.64]\nclass = 1", fillcolor="#399de5"] ;
133 -> 139 ;
140 [label="weight_in_gms <= 0.09\ngini = 0.16\nsamples = 9\nvalue = [1.22, 12.71]\nclass = 1", fillcolor="#4ca6e7"] ;
122 -> 140 ;
141 [label="prior_purchases <= 0.08\ngini = 0.49\nsamples = 2\nvalue = [1.22, 1.69]\nclass = 1", fillcolor="#c8e4f8"] ;
140 -> 141 ;
142 [label="gini = 0.0\nsamples = 1\nvalue = [0.0, 1.69]\nclass = 1", fillcolor="#399de5"] ;
141 -> 142 ;
143 [label="gini = 0.0\nsamples = 1\nvalue = [1.22, 0.0]\nclass = [", fillcolor="#e58139"] ;
141 -> 143 ;
144 [label="gini = 0.0\nsamples = 7\nvalue = [0.0, 11.01]\nclass = 1", fillcolor="#399de5"] ;
140 -> 144 ;
145 [label="gini = -0.0\nsamples = 13\nvalue = [0.0, 16.09]\nclass = 1", fillcolor="#399de5"] ;
121 -> 145 ;
146 [label="product_importance_low <= 0.5\ngini = 0.0\nsamples = 294\nvalue = [0.0, 375.25]\nclass = 1", fillcolor="#399de5"] ;
120 -> 146 ;
147 [label="gini = 0.0\nsamples = 175\nvalue = [0.0, 221.08]\nclass = 1", fillcolor="#399de5"] ;
146 -> 147 ;
148 [label="gini = 0.0\nsamples = 119\nvalue = [0.0, 154.16]\nclass = 1", fillcolor="#399de5"] ;
146 -> 148 ;
149 [label="product_importance_low <= 0.5\ngini = 0.49\nsamples = 885\nvalue = [833.5, 600.56]\nclass = [", fillcolor="#f8dcc8"] ;
119 -> 149 ;
150 [label="weight_in_gms <= 0.15\ngini = 0.49\nsamples = 360\nvalue = [320.95, 254.12]\nclass = [", fillcolor="#fae5d6"] ;
149 -> 150 ;
151 [label="weight_in_gms <= 0.01\ngini = 0.46\nsamples = 301\nvalue = [320.95, 182.12]\nclass = [", fillcolor="#f4c8a9"] ;
150 -> 151 ;
152 [label="cost_of_the_product <= 0.88\ngini = 0.26\nsamples = 33\nvalue = [52.47, 9.32]\nclass = [", fillcolor="#ea975c"] ;
151 -> 152 ;
153 [label="prior_purchases <= 0.42\ngini = 0.16\nsamples = 26\nvalue = [45.15, 4.24]\nclass = [", fillcolor="#e78d4c"] ;
152 -> 153 ;
154 [label="cost_of_the_product <= 0.78\ngini = 0.24\nsamples = 11\nvalue = [15.86, 2.54]\nclass = [", fillcolor="#e99559"] ;
153 -> 154 ;
155 [label="cost_of_the_product <= 0.76\ngini = 0.42\nsamples = 6\nvalue = [6.1, 2.54]\nclass = [", fillcolor="#f0b58b"] ;
154 -> 155 ;
156 [label="weight_in_gms <= 0.0\ngini = 0.21\nsamples = 5\nvalue = [6.1, 0.85]\nclass = [", fillcolor="#e99254"] ;
155 -> 156 ;
157 [label="gini = 0.0\nsamples = 2\nvalue = [3.66, 0.0]\nclass = [", fillcolor="#e58139"] ;
156 -> 157 ;
158 [label="discount_offered <= 0.04\ngini = 0.38\nsamples = 3\nvalue = [2.44, 0.85]\nclass = [", fillcolor="#eead7e"] ;
156 -> 158 ;
159 [label="gini = 0.0\nsamples = 1\nvalue = [0.0, 0.85]\nclass = 1", fillcolor="#399de5"] ;
158 -> 159 ;
160 [label="gini = -0.0\nsamples = 2\nvalue = [2.44, 0.0]\nclass = [", fillcolor="#e58139"] ;
158 -> 160 ;
161 [label="gini = 0.0\nsamples = 1\nvalue = [0.0, 1.69]\nclass = 1", fillcolor="#399de5"] ;
155 -> 161 ;
162 [label="discount_offered <= 0.04\ngini = 0.0\nsamples = 5\nvalue = [9.76, 0.0]\nclass = [", fillcolor="#e58139"] ;
154 -> 162 ;
163 [label="gini = 0.0\nsamples = 1\nvalue = [2.44, 0.0]\nclass = [", fillcolor="#e58139"] ;
162 -> 163 ;
164 [label="gini = 0.0\nsamples = 4\nvalue = [7.32, 0.0]\nclass = [", fillcolor="#e58139"] ;
162 -> 164 ;
165 [label="mode_of_shipment_Road <= 0.5\ngini = 0.1\nsamples = 15\nvalue = [29.29, 1.69]\nclass = [", fillcolor="#e78844"] ;
153 -> 165 ;
166 [label="discount_offered <= 0.09\ngini = 0.13\nsamples = 12\nvalue = [23.19, 1.69]\nclass = [", fillcolor="#e78a47"] ;
165 -> 166 ;
167 [label="gini = 0.0\nsamples = 8\nvalue = [19.53, 0.0]\nclass = [", fillcolor="#e58139"] ;
166 -> 167 ;
168 [label="weight_in_gms <= 0.0\ngini = 0.43\nsamples = 4\nvalue = [3.66, 1.69]\nclass = [", fillcolor="#f1bb95"] ;
166 -> 168 ;
169 [label="gini = 0.0\nsamples = 2\nvalue = [3.66, 0.0]\nclass = [", fillcolor="#e58139"] ;
168 -> 169 ;
170 [label="weight_in_gms <= 0.01\ngini = 0.0\nsamples = 2\nvalue = [0.0, 1.69]\nclass = 1", fillcolor="#399de5"] ;
168 -> 170 ;
171 [label="gini = 0.0\nsamples = 1\nvalue = [0.0, 0.85]\nclass = 1", fillcolor="#399de5"] ;
170 -> 171 ;
172 [label="gini = 0.0\nsamples = 1\nvalue = [0.0, 0.85]\nclass = 1", fillcolor="#399de5"] ;
170 -> 172 ;
173 [label="gini = 0.0\nsamples = 3\nvalue = [6.1, 0.0]\nclass = [", fillcolor="#e58139"] ;
165 -> 173 ;
174 [label="customer_rating <= 0.12\ngini = 0.48\nsamples = 7\nvalue = [7.32, 5.08]\nclass = [", fillcolor="#f7d8c2"] ;
152 -> 174 ;
175 [label="gini = 0.0\nsamples = 3\nvalue = [6.1, 0.0]\nclass = [", fillcolor="#e58139"] ;
174 -> 175 ;
176 [label="discount_offered <= 0.01\ngini = 0.31\nsamples = 4\nvalue = [1.22, 5.08]\nclass = 1", fillcolor="#69b5eb"] ;
174 -> 176 ;
177 [label="gini = 0.0\nsamples = 1\nvalue = [1.22, 0.0]\nclass = [", fillcolor="#e58139"] ;
176 -> 177 ;
178 [label="gini = 0.0\nsamples = 3\nvalue = [0.0, 5.08]\nclass = 1", fillcolor="#399de5"] ;
176 -> 178 ;
179 [label="discount_offered <= 0.13\ngini = 0.48\nsamples = 268\nvalue = [268.48, 172.8]\nclass = [", fillcolor="#f6d2b8"] ;
151 -> 179 ;
180 [label="weight_in_gms <= 0.1\ngini = 0.46\nsamples = 207\nvalue = [218.44, 122.82]\nclass = [", fillcolor="#f4c8a8"] ;
179 -> 180 ;
181 [label="customer_rating <= 0.88\ngini = 0.43\nsamples = 130\nvalue = [153.76, 69.46]\nclass = [", fillcolor="#f1ba92"] ;
180 -> 181 ;
182 [label="discount_offered <= 0.09\ngini = 0.46\nsamples = 104\nvalue = [109.83, 62.68]\nclass = [", fillcolor="#f4c9aa"] ;
181 -> 182 ;
183 [label="customer_care_calls <= 0.9\ngini = 0.43\nsamples = 79\nvalue = [93.97, 44.05]\nclass = [", fillcolor="#f1bc96"] ;
182 -> 183 ;
184 [label="prior_purchases <= 0.42\ngini = 0.45\nsamples = 67\nvalue = [76.88, 38.96]\nclass = [", fillcolor="#f2c19d"] ;
183 -> 184 ;
185 [label="cost_of_the_product <= 0.74\ngini = 0.5\nsamples = 20\nvalue = [15.86, 15.25]\nclass = [", fillcolor="#fefaf7"] ;
184 -> 185 ;
186 [label="gini = 0.0\nsamples = 2\nvalue = [0.0, 3.39]\nclass = 1", fillcolor="#399de5"] ;
185 -> 186 ;
187 [label="mode_of_shipment_Road <= 0.5\ngini = 0.49\nsamples = 18\nvalue = [15.86, 11.86]\nclass = [", fillcolor="#f8dfcd"] ;
185 -> 187 ;
188 [label="discount_offered <= 0.03\ngini = 0.5\nsamples = 14\nvalue = [10.98, 10.16]\nclass = [", fillcolor="#fdf6f0"] ;
187 -> 188 ;
189 [label="weight_in_gms <= 0.07\ngini = 0.26\nsamples = 7\nvalue = [1.22, 6.78]\nclass = 1", fillcolor="#5dafea"] ;
188 -> 189 ;
190 [label="gini = 0.0\nsamples = 5\nvalue = [0.0, 5.93]\nclass = 1", fillcolor="#399de5"] ;
189 -> 190 ;
191 [label="weight_in_gms <= 0.08\ngini = 0.48\nsamples = 2\nvalue = [1.22, 0.85]\nclass = [", fillcolor="#f7d8c2"] ;
189 -> 191 ;
192 [label="gini = 0.0\nsamples = 1\nvalue = [1.22, 0.0]\nclass = [", fillcolor="#e58139"] ;
191 -> 192 ;
193 [label="gini = 0.0\nsamples = 1\nvalue = [0.0, 0.85]\nclass = 1", fillcolor="#399de5"] ;
191 -> 193 ;
194 [label="customer_rating <= 0.62\ngini = 0.38\nsamples = 7\nvalue = [9.76, 3.39]\nclass = [", fillcolor="#eead7e"] ;
188 -> 194 ;
195 [label="warehouse_block_D <= 0.5\ngini = 0.5\nsamples = 5\nvalue = [3.66, 3.39]\nclass = [", fillcolor="#fdf6f0"] ;
194 -> 195 ;
196 [label="product_importance_high <= 0.5\ngini = 0.39\nsamples = 4\nvalue = [1.22, 3.39]\nclass = 1", fillcolor="#80c0ee"] ;
195 -> 196 ;
197 [label="discount_offered <= 0.06\ngini = 0.44\nsamples = 3\nvalue = [1.22, 2.54]\nclass = 1", fillcolor="#98ccf1"] ;
196 -> 197 ;
198 [label="gini = 0.0\nsamples = 1\nvalue = [1.22, 0.0]\nclass = [", fillcolor="#e58139"] ;
197 -> 198 ;
199 [label="gini = 0.0\nsamples = 2\nvalue = [0.0, 2.54]\nclass = 1", fillcolor="#399de5"] ;
197 -> 199 ;
200 [label="gini = 0.0\nsamples = 1\nvalue = [0.0, 0.85]\nclass = 1", fillcolor="#399de5"] ;
196 -> 200 ;
201 [label="gini = -0.0\nsamples = 1\nvalue = [2.44, 0.0]\nclass = [", fillcolor="#e58139"] ;
195 -> 201 ;
202 [label="gini = 0.0\nsamples = 2\nvalue = [6.1, 0.0]\nclass = [", fillcolor="#e58139"] ;
194 -> 202 ;
203 [label="customer_rating <= 0.38\ngini = 0.38\nsamples = 4\nvalue = [4.88, 1.69]\nclass = [", fillcolor="#eead7e"] ;
187 -> 203 ;
204 [label="gini = -0.0\nsamples = 3\nvalue = [4.88, 0.0]\nclass = [", fillcolor="#e58139"] ;
203 -> 204 ;
205 [label="gini = 0.0\nsamples = 1\nvalue = [0.0, 1.69]\nclass = 1", fillcolor="#399de5"] ;
203 -> 205 ;
206 [label="weight_in_gms <= 0.02\ngini = 0.4\nsamples = 47\nvalue = [61.02, 23.72]\nclass = [", fillcolor="#efb286"] ;
184 -> 206 ;
207 [label="cost_of_the_product <= 0.79\ngini = 0.31\nsamples = 4\nvalue = [1.22, 5.08]\nclass = 1", fillcolor="#69b5eb"] ;
206 -> 207 ;
208 [label="gini = 0.0\nsamples = 3\nvalue = [0.0, 5.08]\nclass = 1", fillcolor="#399de5"] ;
207 -> 208 ;
209 [label="gini = -0.0\nsamples = 1\nvalue = [1.22, 0.0]\nclass = [", fillcolor="#e58139"] ;
207 -> 209 ;
210 [label="weight_in_gms <= 0.07\ngini = 0.36\nsamples = 43\nvalue = [59.8, 18.64]\nclass = [", fillcolor="#eda877"] ;
206 -> 210 ;
211 [label="weight_in_gms <= 0.03\ngini = 0.21\nsamples = 20\nvalue = [31.73, 4.24]\nclass = [", fillcolor="#e89253"] ;
210 -> 211 ;
212 [label="discount_offered <= 0.04\ngini = 0.48\nsamples = 2\nvalue = [2.44, 1.69]\nclass = [", fillcolor="#f7d8c2"] ;
211 -> 212 ;
213 [label="gini = 0.0\nsamples = 1\nvalue = [2.44, 0.0]\nclass = [", fillcolor="#e58139"] ;
212 -> 213 ;
214 [label="gini = 0.0\nsamples = 1\nvalue = [0.0, 1.69]\nclass = 1", fillcolor="#399de5"] ;
212 -> 214 ;
215 [label="discount_offered <= 0.08\ngini = 0.15\nsamples = 18\nvalue = [29.29, 2.54]\nclass = [", fillcolor="#e78c4a"] ;
211 -> 215 ;
216 [label="cost_of_the_product <= 0.79\ngini = 0.06\nsamples = 13\nvalue = [24.41, 0.85]\nclass = [", fillcolor="#e68540"] ;
215 -> 216 ;
217 [label="gini = 0.0\nsamples = 9\nvalue = [18.31, 0.0]\nclass = [", fillcolor="#e58139"] ;
216 -> 217 ;
218 [label="weight_in_gms <= 0.03\ngini = 0.21\nsamples = 4\nvalue = [6.1, 0.85]\nclass = [", fillcolor="#e99254"] ;
216 -> 218 ;
219 [label="gini = 0.0\nsamples = 1\nvalue = [0.0, 0.85]\nclass = 1", fillcolor="#399de5"] ;
218 -> 219 ;
220 [label="gini = 0.0\nsamples = 3\nvalue = [6.1, 0.0]\nclass = [", fillcolor="#e58139"] ;
218 -> 220 ;
221 [label="customer_care_calls <= 0.5\ngini = 0.38\nsamples = 5\nvalue = [4.88, 1.69]\nclass = [", fillcolor="#eead7e"] ;
215 -> 221 ;
222 [label="gini = 0.0\nsamples = 2\nvalue = [2.44, 0.0]\nclass = [", fillcolor="#e58139"] ;
221 -> 222 ;
223 [label="cost_of_the_product <= 0.72\ngini = 0.48\nsamples = 3\nvalue = [2.44, 1.69]\nclass = [", fillcolor="#f7d8c2"] ;
221 -> 223 ;
224 [label="gini = 0.0\nsamples = 1\nvalue = [0.0, 1.69]\nclass = 1", fillcolor="#399de5"] ;
223 -> 224 ;
225 [label="gini = 0.0\nsamples = 2\nvalue = [2.44, 0.0]\nclass = [", fillcolor="#e58139"] ;
223 -> 225 ;
226 [label="prior_purchases <= 0.58\ngini = 0.45\nsamples = 23\nvalue = [28.07, 14.4]\nclass = [", fillcolor="#f2c29f"] ;
210 -> 226 ;
227 [label="product_importance_high <= 0.5\ngini = 0.38\nsamples = 16\nvalue = [21.97, 7.62]\nclass = [", fillcolor="#eead7e"] ;
226 -> 227 ;
228 [label="discount_offered <= 0.04\ngini = 0.39\nsamples = 15\nvalue = [20.75, 7.62]\nclass = [", fillcolor="#efaf82"] ;
227 -> 228 ;
229 [label="customer_rating <= 0.12\ngini = 0.48\nsamples = 9\nvalue = [7.32, 5.08]\nclass = [", fillcolor="#f7d8c2"] ;
228 -> 229 ;
230 [label="discount_offered <= 0.02\ngini = 0.39\nsamples = 4\nvalue = [1.22, 3.39]\nclass = 1", fillcolor="#80c0ee"] ;
229 -> 230 ;
231 [label="customer_care_calls <= 0.5\ngini = 0.48\nsamples = 2\nvalue = [1.22, 0.85]\nclass = [", fillcolor="#f7d8c2"] ;
230 -> 231 ;
232 [label="gini = 0.0\nsamples = 1\nvalue = [0.0, 0.85]\nclass = 1", fillcolor="#399de5"] ;
231 -> 232 ;
233 [label="gini = 0.0\nsamples = 1\nvalue = [1.22, 0.0]\nclass = [", fillcolor="#e58139"] ;
231 -> 233 ;
234 [label="gini = 0.0\nsamples = 2\nvalue = [0.0, 2.54]\nclass = 1", fillcolor="#399de5"] ;
230 -> 234 ;
235 [label="discount_offered <= 0.03\ngini = 0.34\nsamples = 5\nvalue = [6.1, 1.69]\nclass = [", fillcolor="#eca470"] ;
229 -> 235 ;
236 [label="cost_of_the_product <= 0.68\ngini = 0.49\nsamples = 3\nvalue = [1.22, 1.69]\nclass = 1", fillcolor="#c8e4f8"] ;
235 -> 236 ;
237 [label="gini = 0.0\nsamples = 1\nvalue = [0.0, 0.85]\nclass = 1", fillcolor="#399de5"] ;
236 -> 237 ;
238 [label="weight_in_gms <= 0.1\ngini = 0.48\nsamples = 2\nvalue = [1.22, 0.85]\nclass = [", fillcolor="#f7d8c2"] ;
236 -> 238 ;
239 [label="gini = 0.0\nsamples = 1\nvalue = [1.22, 0.0]\nclass = [", fillcolor="#e58139"] ;
238 -> 239 ;
240 [label="gini = 0.0\nsamples = 1\nvalue = [0.0, 0.85]\nclass = 1", fillcolor="#399de5"] ;
238 -> 240 ;
241 [label="gini = 0.0\nsamples = 2\nvalue = [4.88, 0.0]\nclass = [", fillcolor="#e58139"] ;
235 -> 241 ;
242 [label="warehouse_block_D <= 0.5\ngini = 0.27\nsamples = 6\nvalue = [13.42, 2.54]\nclass = [", fillcolor="#ea995e"] ;
228 -> 242 ;
243 [label="discount_offered <= 0.06\ngini = 0.31\nsamples = 5\nvalue = [10.98, 2.54]\nclass = [", fillcolor="#eb9e67"] ;
242 -> 243 ;
244 [label="weight_in_gms <= 0.09\ngini = 0.38\nsamples = 3\nvalue = [7.32, 2.54]\nclass = [", fillcolor="#eead7e"] ;
243 -> 244 ;
245 [label="gini = 0.0\nsamples = 2\nvalue = [7.32, 0.0]\nclass = [", fillcolor="#e58139"] ;
244 -> 245 ;
246 [label="gini = 0.0\nsamples = 1\nvalue = [0.0, 2.54]\nclass = 1", fillcolor="#399de5"] ;
244 -> 246 ;
247 [label="gini = 0.0\nsamples = 2\nvalue = [3.66, 0.0]\nclass = [", fillcolor="#e58139"] ;
243 -> 247 ;
248 [label="gini = 0.0\nsamples = 1\nvalue = [2.44, 0.0]\nclass = [", fillcolor="#e58139"] ;
242 -> 248 ;
249 [label="gini = 0.0\nsamples = 1\nvalue = [1.22, 0.0]\nclass = [", fillcolor="#e58139"] ;
227 -> 249 ;
250 [label="customer_rating <= 0.62\ngini = 0.5\nsamples = 7\nvalue = [6.1, 6.78]\nclass = 1", fillcolor="#ebf5fc"] ;
226 -> 250 ;
251 [label="weight_in_gms <= 0.08\ngini = 0.48\nsamples = 6\nvalue = [6.1, 4.24]\nclass = [", fillcolor="#f7d8c2"] ;
250 -> 251 ;
252 [label="gini = 0.0\nsamples = 1\nvalue = [0.0, 2.54]\nclass = 1", fillcolor="#399de5"] ;
251 -> 252 ;
253 [label="discount_offered <= 0.01\ngini = 0.34\nsamples = 5\nvalue = [6.1, 1.69]\nclass = [", fillcolor="#eca470"] ;
251 -> 253 ;
254 [label="gini = 0.0\nsamples = 1\nvalue = [2.44, 0.0]\nclass = [", fillcolor="#e58139"] ;
253 -> 254 ;
255 [label="weight_in_gms <= 0.09\ngini = 0.43\nsamples = 4\nvalue = [3.66, 1.69]\nclass = [", fillcolor="#f1bb95"] ;
253 -> 255 ;
256 [label="gini = 0.0\nsamples = 2\nvalue = [3.66, 0.0]\nclass = [", fillcolor="#e58139"] ;
255 -> 256 ;
257 [label="gini = -0.0\nsamples = 2\nvalue = [0.0, 1.69]\nclass = 1", fillcolor="#399de5"] ;
255 -> 257 ;
258 [label="gini = 0.0\nsamples = 1\nvalue = [0.0, 2.54]\nclass = 1", fillcolor="#399de5"] ;
250 -> 258 ;
259 [label="cost_of_the_product <= 0.73\ngini = 0.35\nsamples = 12\nvalue = [17.08, 5.08]\nclass = [", fillcolor="#eda674"] ;
183 -> 259 ;
260 [label="gini = 0.0\nsamples = 3\nvalue = [0.0, 2.54]\nclass = 1", fillcolor="#399de5"] ;
259 -> 260 ;
261 [label="cost_of_the_product <= 0.79\ngini = 0.23\nsamples = 9\nvalue = [17.08, 2.54]\nclass = [", fillcolor="#e99456"] ;
259 -> 261 ;
262 [label="gini = 0.0\nsamples = 3\nvalue = [8.54, 0.0]\nclass = [", fillcolor="#e58139"] ;
261 -> 262 ;
263 [label="cost_of_the_product <= 0.81\ngini = 0.35\nsamples = 6\nvalue = [8.54, 2.54]\nclass = [", fillcolor="#eda674"] ;
261 -> 263 ;
264 [label="gini = 0.0\nsamples = 1\nvalue = [0.0, 0.85]\nclass = 1", fillcolor="#399de5"] ;
263 -> 264 ;
265 [label="warehouse_block_D <= 0.5\ngini = 0.28\nsamples = 5\nvalue = [8.54, 1.69]\nclass = [", fillcolor="#ea9a60"] ;
263 -> 265 ;
266 [label="gini = -0.0\nsamples = 3\nvalue = [7.32, 0.0]\nclass = [", fillcolor="#e58139"] ;
265 -> 266 ;
267 [label="mode_of_shipment_Road <= 0.5\ngini = 0.49\nsamples = 2\nvalue = [1.22, 1.69]\nclass = 1", fillcolor="#c8e4f8"] ;
265 -> 267 ;
268 [label="gini = 0.0\nsamples = 1\nvalue = [0.0, 1.69]\nclass = 1", fillcolor="#399de5"] ;
267 -> 268 ;
269 [label="gini = 0.0\nsamples = 1\nvalue = [1.22, 0.0]\nclass = [", fillcolor="#e58139"] ;
267 -> 269 ;
270 [label="weight_in_gms <= 0.07\ngini = 0.5\nsamples = 25\nvalue = [15.86, 18.64]\nclass = 1", fillcolor="#e2f0fb"] ;
182 -> 270 ;
271 [label="cost_of_the_product <= 1.0\ngini = 0.39\nsamples = 17\nvalue = [6.1, 16.94]\nclass = 1", fillcolor="#80c0ee"] ;
270 -> 271 ;
272 [label="weight_in_gms <= 0.06\ngini = 0.35\nsamples = 16\nvalue = [4.88, 16.94]\nclass = 1", fillcolor="#72b9ec"] ;
271 -> 272 ;
273 [label="prior_purchases <= 0.58\ngini = 0.45\nsamples = 10\nvalue = [4.88, 9.32]\nclass = 1", fillcolor="#a1d0f3"] ;
272 -> 273 ;
274 [label="customer_rating <= 0.38\ngini = 0.22\nsamples = 7\nvalue = [1.22, 8.47]\nclass = 1", fillcolor="#56abe9"] ;
273 -> 274 ;
275 [label="gini = -0.0\nsamples = 4\nvalue = [0.0, 5.08]\nclass = 1", fillcolor="#399de5"] ;
274 -> 275 ;
276 [label="weight_in_gms <= 0.05\ngini = 0.39\nsamples = 3\nvalue = [1.22, 3.39]\nclass = 1", fillcolor="#80c0ee"] ;
274 -> 276 ;
277 [label="gini = 0.0\nsamples = 2\nvalue = [0.0, 3.39]\nclass = 1", fillcolor="#399de5"] ;
276 -> 277 ;
278 [label="gini = -0.0\nsamples = 1\nvalue = [1.22, 0.0]\nclass = [", fillcolor="#e58139"] ;
276 -> 278 ;
279 [label="customer_rating <= 0.38\ngini = 0.31\nsamples = 3\nvalue = [3.66, 0.85]\nclass = [", fillcolor="#eb9e67"] ;
273 -> 279 ;
280 [label="cost_of_the_product <= 0.74\ngini = 0.48\nsamples = 2\nvalue = [1.22, 0.85]\nclass = [", fillcolor="#f7d8c2"] ;
279 -> 280 ;
281 [label="gini = 0.0\nsamples = 1\nvalue = [1.22, 0.0]\nclass = [", fillcolor="#e58139"] ;
280 -> 281 ;
282 [label="gini = 0.0\nsamples = 1\nvalue = [0.0, 0.85]\nclass = 1", fillcolor="#399de5"] ;
280 -> 282 ;
283 [label="gini = 0.0\nsamples = 1\nvalue = [2.44, 0.0]\nclass = [", fillcolor="#e58139"] ;
279 -> 283 ;
284 [label="customer_rating <= 0.12\ngini = 0.0\nsamples = 6\nvalue = [0.0, 7.62]\nclass = 1", fillcolor="#399de5"] ;
272 -> 284 ;
285 [label="gini = 0.0\nsamples = 1\nvalue = [0.0, 0.85]\nclass = 1", fillcolor="#399de5"] ;
284 -> 285 ;
286 [label="gini = 0.0\nsamples = 5\nvalue = [0.0, 6.78]\nclass = 1", fillcolor="#399de5"] ;
284 -> 286 ;
287 [label="gini = 0.0\nsamples = 1\nvalue = [1.22, 0.0]\nclass = [", fillcolor="#e58139"] ;
271 -> 287 ;
288 [label="customer_rating <= 0.12\ngini = 0.25\nsamples = 8\nvalue = [9.76, 1.69]\nclass = [", fillcolor="#ea975b"] ;
270 -> 288 ;
289 [label="mode_of_shipment_Road <= 0.5\ngini = 0.48\nsamples = 2\nvalue = [1.22, 0.85]\nclass = [", fillcolor="#f7d8c2"] ;
288 -> 289 ;
290 [label="gini = 0.0\nsamples = 1\nvalue = [1.22, 0.0]\nclass = [", fillcolor="#e58139"] ;
289 -> 290 ;
291 [label="gini = 0.0\nsamples = 1\nvalue = [0.0, 0.85]\nclass = 1", fillcolor="#399de5"] ;
289 -> 291 ;
292 [label="weight_in_gms <= 0.09\ngini = 0.16\nsamples = 6\nvalue = [8.54, 0.85]\nclass = [", fillcolor="#e88d4d"] ;
288 -> 292 ;
293 [label="gini = 0.0\nsamples = 5\nvalue = [8.54, 0.0]\nclass = [", fillcolor="#e58139"] ;
292 -> 293 ;
294 [label="gini = -0.0\nsamples = 1\nvalue = [0.0, 0.85]\nclass = 1", fillcolor="#399de5"] ;
292 -> 294 ;
295 [label="cost_of_the_product <= 0.8\ngini = 0.23\nsamples = 26\nvalue = [43.93, 6.78]\nclass = [", fillcolor="#e99458"] ;
181 -> 295 ;
296 [label="warehouse_block_D <= 0.5\ngini = 0.06\nsamples = 13\nvalue = [25.63, 0.85]\nclass = [", fillcolor="#e68540"] ;
295 -> 296 ;
297 [label="gini = -0.0\nsamples = 9\nvalue = [19.53, 0.0]\nclass = [", fillcolor="#e58139"] ;
296 -> 297 ;
298 [label="cost_of_the_product <= 0.73\ngini = 0.21\nsamples = 4\nvalue = [6.1, 0.85]\nclass = [", fillcolor="#e99254"] ;
296 -> 298 ;
299 [label="gini = 0.0\nsamples = 3\nvalue = [6.1, 0.0]\nclass = [", fillcolor="#e58139"] ;
298 -> 299 ;
300 [label="gini = 0.0\nsamples = 1\nvalue = [0.0, 0.85]\nclass = 1", fillcolor="#399de5"] ;
298 -> 300 ;
301 [label="weight_in_gms <= 0.03\ngini = 0.37\nsamples = 13\nvalue = [18.31, 5.93]\nclass = [", fillcolor="#edaa79"] ;
295 -> 301 ;
302 [label="gini = 0.0\nsamples = 4\nvalue = [9.76, 0.0]\nclass = [", fillcolor="#e58139"] ;
301 -> 302 ;
303 [label="customer_care_calls <= 0.5\ngini = 0.48\nsamples = 9\nvalue = [8.54, 5.93]\nclass = [", fillcolor="#f7d8c2"] ;
301 -> 303 ;
304 [label="gini = 0.0\nsamples = 1\nvalue = [1.22, 0.0]\nclass = [", fillcolor="#e58139"] ;
303 -> 304 ;
305 [label="weight_in_gms <= 0.09\ngini = 0.49\nsamples = 8\nvalue = [7.32, 5.93]\nclass = [", fillcolor="#fae7d9"] ;
303 -> 305 ;
306 [label="weight_in_gms <= 0.04\ngini = 0.47\nsamples = 7\nvalue = [3.66, 5.93]\nclass = 1", fillcolor="#b3daf5"] ;
305 -> 306 ;
307 [label="gini = 0.0\nsamples = 2\nvalue = [0.0, 2.54]\nclass = 1", fillcolor="#399de5"] ;
306 -> 307 ;
308 [label="discount_offered <= 0.01\ngini = 0.5\nsamples = 5\nvalue = [3.66, 3.39]\nclass = [", fillcolor="#fdf6f0"] ;
306 -> 308 ;
309 [label="gini = 0.0\nsamples = 1\nvalue = [0.0, 1.69]\nclass = 1", fillcolor="#399de5"] ;
308 -> 309 ;
310 [label="customer_care_calls <= 0.9\ngini = 0.43\nsamples = 4\nvalue = [3.66, 1.69]\nclass = [", fillcolor="#f1bb95"] ;
308 -> 310 ;
311 [label="gini = 0.0\nsamples = 2\nvalue = [0.0, 1.69]\nclass = 1", fillcolor="#399de5"] ;
310 -> 311 ;
312 [label="gini = -0.0\nsamples = 2\nvalue = [3.66, 0.0]\nclass = [", fillcolor="#e58139"] ;
310 -> 312 ;
313 [label="gini = 0.0\nsamples = 1\nvalue = [3.66, 0.0]\nclass = [", fillcolor="#e58139"] ;
305 -> 313 ;
314 [label="prior_purchases <= 0.58\ngini = 0.5\nsamples = 77\nvalue = [64.68, 53.36]\nclass = [", fillcolor="#fae9dc"] ;
180 -> 314 ;
315 [label="cost_of_the_product <= 0.66\ngini = 0.49\nsamples = 67\nvalue = [61.02, 44.89]\nclass = [", fillcolor="#f8decb"] ;
314 -> 315 ;
316 [label="gini = 0.0\nsamples = 8\nvalue = [10.98, 0.0]\nclass = [", fillcolor="#e58139"] ;
315 -> 316 ;
317 [label="customer_care_calls <= 0.7\ngini = 0.5\nsamples = 59\nvalue = [50.03, 44.89]\nclass = [", fillcolor="#fcf2eb"] ;
315 -> 317 ;
318 [label="discount_offered <= 0.01\ngini = 0.48\nsamples = 26\nvalue = [26.85, 18.64]\nclass = [", fillcolor="#f7d8c2"] ;
317 -> 318 ;
319 [label="cost_of_the_product <= 0.75\ngini = 0.46\nsamples = 4\nvalue = [2.44, 4.24]\nclass = 1", fillcolor="#abd5f4"] ;
318 -> 319 ;
320 [label="gini = 0.0\nsamples = 3\nvalue = [0.0, 4.24]\nclass = 1", fillcolor="#399de5"] ;
319 -> 320 ;
321 [label="gini = -0.0\nsamples = 1\nvalue = [2.44, 0.0]\nclass = [", fillcolor="#e58139"] ;
319 -> 321 ;
322 [label="customer_rating <= 0.12\ngini = 0.47\nsamples = 22\nvalue = [24.41, 14.4]\nclass = [", fillcolor="#f4cbae"] ;
318 -> 322 ;
323 [label="discount_offered <= 0.08\ngini = 0.25\nsamples = 3\nvalue = [4.88, 0.85]\nclass = [", fillcolor="#ea975b"] ;
322 -> 323 ;
324 [label="gini = 0.0\nsamples = 2\nvalue = [4.88, 0.0]\nclass = [", fillcolor="#e58139"] ;
323 -> 324 ;
325 [label="gini = 0.0\nsamples = 1\nvalue = [0.0, 0.85]\nclass = 1", fillcolor="#399de5"] ;
323 -> 325 ;
326 [label="weight_in_gms <= 0.11\ngini = 0.48\nsamples = 19\nvalue = [19.53, 13.55]\nclass = [", fillcolor="#f7d8c2"] ;
322 -> 326 ;
327 [label="gini = 0.0\nsamples = 3\nvalue = [0.0, 5.93]\nclass = 1", fillcolor="#399de5"] ;
326 -> 327 ;
328 [label="cost_of_the_product <= 0.66\ngini = 0.4\nsamples = 16\nvalue = [19.53, 7.62]\nclass = [", fillcolor="#efb286"] ;
326 -> 328 ;
329 [label="gini = 0.0\nsamples = 1\nvalue = [0.0, 0.85]\nclass = 1", fillcolor="#399de5"] ;
328 -> 329 ;
330 [label="weight_in_gms <= 0.14\ngini = 0.38\nsamples = 15\nvalue = [19.53, 6.78]\nclass = [", fillcolor="#eead7e"] ;
328 -> 330 ;
331 [label="customer_rating <= 0.38\ngini = 0.33\nsamples = 14\nvalue = [19.53, 5.08]\nclass = [", fillcolor="#eca26d"] ;
330 -> 331 ;
332 [label="discount_offered <= 0.09\ngini = 0.49\nsamples = 2\nvalue = [1.22, 1.69]\nclass = 1", fillcolor="#c8e4f8"] ;
331 -> 332 ;
333 [label="gini = 0.0\nsamples = 1\nvalue = [0.0, 1.69]\nclass = 1", fillcolor="#399de5"] ;
332 -> 333 ;
334 [label="gini = 0.0\nsamples = 1\nvalue = [1.22, 0.0]\nclass = [", fillcolor="#e58139"] ;
332 -> 334 ;
335 [label="cost_of_the_product <= 0.73\ngini = 0.26\nsamples = 12\nvalue = [18.31, 3.39]\nclass = [", fillcolor="#ea985e"] ;
331 -> 335 ;
336 [label="warehouse_block_D <= 0.5\ngini = 0.36\nsamples = 7\nvalue = [10.98, 3.39]\nclass = [", fillcolor="#eda876"] ;
335 -> 336 ;
337 [label="customer_rating <= 0.62\ngini = 0.43\nsamples = 5\nvalue = [7.32, 3.39]\nclass = [", fillcolor="#f1bb95"] ;
336 -> 337 ;
338 [label="gini = 0.0\nsamples = 2\nvalue = [4.88, 0.0]\nclass = [", fillcolor="#e58139"] ;
337 -> 338 ;
339 [label="customer_care_calls <= 0.5\ngini = 0.49\nsamples = 3\nvalue = [2.44, 3.39]\nclass = 1", fillcolor="#c8e4f8"] ;
337 -> 339 ;
340 [label="gini = 0.0\nsamples = 1\nvalue = [2.44, 0.0]\nclass = [", fillcolor="#e58139"] ;
339 -> 340 ;
341 [label="gini = -0.0\nsamples = 2\nvalue = [0.0, 3.39]\nclass = 1", fillcolor="#399de5"] ;
339 -> 341 ;
342 [label="gini = 0.0\nsamples = 2\nvalue = [3.66, 0.0]\nclass = [", fillcolor="#e58139"] ;
336 -> 342 ;
343 [label="customer_care_calls <= 0.4\ngini = 0.0\nsamples = 5\nvalue = [7.32, 0.0]\nclass = [", fillcolor="#e58139"] ;
335 -> 343 ;
344 [label="gini = 0.0\nsamples = 1\nvalue = [1.22, 0.0]\nclass = [", fillcolor="#e58139"] ;
343 -> 344 ;
345 [label="gini = 0.0\nsamples = 4\nvalue = [6.1, 0.0]\nclass = [", fillcolor="#e58139"] ;
343 -> 345 ;
346 [label="gini = -0.0\nsamples = 1\nvalue = [0.0, 1.69]\nclass = 1", fillcolor="#399de5"] ;
330 -> 346 ;
347 [label="warehouse_block_D <= 0.5\ngini = 0.5\nsamples = 33\nvalue = [23.19, 26.26]\nclass = 1", fillcolor="#e8f4fc"] ;
317 -> 347 ;
348 [label="customer_rating <= 0.88\ngini = 0.47\nsamples = 27\nvalue = [14.64, 23.72]\nclass = 1", fillcolor="#b3daf5"] ;
347 -> 348 ;
349 [label="cost_of_the_product <= 0.95\ngini = 0.5\nsamples = 19\nvalue = [13.42, 12.71]\nclass = [", fillcolor="#fef8f4"] ;
348 -> 349 ;
350 [label="weight_in_gms <= 0.11\ngini = 0.48\nsamples = 16\nvalue = [13.42, 9.32]\nclass = [", fillcolor="#f7d8c2"] ;
349 -> 350 ;
351 [label="gini = 0.0\nsamples = 3\nvalue = [4.88, 0.0]\nclass = [", fillcolor="#e58139"] ;
350 -> 351 ;
352 [label="cost_of_the_product <= 0.9\ngini = 0.5\nsamples = 13\nvalue = [8.54, 9.32]\nclass = 1", fillcolor="#eff7fd"] ;
350 -> 352 ;
353 [label="discount_offered <= 0.09\ngini = 0.46\nsamples = 8\nvalue = [3.66, 6.78]\nclass = 1", fillcolor="#a4d2f3"] ;
352 -> 353 ;
354 [label="customer_rating <= 0.38\ngini = 0.31\nsamples = 5\nvalue = [1.22, 5.08]\nclass = 1", fillcolor="#69b5eb"] ;
353 -> 354 ;
355 [label="cost_of_the_product <= 0.76\ngini = 0.0\nsamples = 3\nvalue = [0.0, 4.24]\nclass = 1", fillcolor="#399de5"] ;
354 -> 355 ;
356 [label="gini = 0.0\nsamples = 1\nvalue = [0.0, 0.85]\nclass = 1", fillcolor="#399de5"] ;
355 -> 356 ;
357 [label="gini = 0.0\nsamples = 2\nvalue = [0.0, 3.39]\nclass = 1", fillcolor="#399de5"] ;
355 -> 357 ;
358 [label="cost_of_the_product <= 0.7\ngini = 0.48\nsamples = 2\nvalue = [1.22, 0.85]\nclass = [", fillcolor="#f7d8c2"] ;
354 -> 358 ;
359 [label="gini = 0.0\nsamples = 1\nvalue = [0.0, 0.85]\nclass = 1", fillcolor="#399de5"] ;
358 -> 359 ;
360 [label="gini = 0.0\nsamples = 1\nvalue = [1.22, 0.0]\nclass = [", fillcolor="#e58139"] ;
358 -> 360 ;
361 [label="cost_of_the_product <= 0.77\ngini = 0.48\nsamples = 3\nvalue = [2.44, 1.69]\nclass = [", fillcolor="#f7d8c2"] ;
353 -> 361 ;
362 [label="gini = 0.0\nsamples = 1\nvalue = [2.44, 0.0]\nclass = [", fillcolor="#e58139"] ;
361 -> 362 ;
363 [label="gini = 0.0\nsamples = 2\nvalue = [0.0, 1.69]\nclass = 1", fillcolor="#399de5"] ;
361 -> 363 ;
364 [label="customer_care_calls <= 0.9\ngini = 0.45\nsamples = 5\nvalue = [4.88, 2.54]\nclass = [", fillcolor="#f3c3a0"] ;
352 -> 364 ;
365 [label="customer_rating <= 0.62\ngini = 0.43\nsamples = 3\nvalue = [3.66, 1.69]\nclass = [", fillcolor="#f1bb95"] ;
364 -> 365 ;
366 [label="gini = 0.0\nsamples = 1\nvalue = [1.22, 0.0]\nclass = [", fillcolor="#e58139"] ;
365 -> 366 ;
367 [label="weight_in_gms <= 0.11\ngini = 0.48\nsamples = 2\nvalue = [2.44, 1.69]\nclass = [", fillcolor="#f7d8c2"] ;
365 -> 367 ;
368 [label="gini = 0.0\nsamples = 1\nvalue = [0.0, 1.69]\nclass = 1", fillcolor="#399de5"] ;
367 -> 368 ;
369 [label="gini = 0.0\nsamples = 1\nvalue = [2.44, 0.0]\nclass = [", fillcolor="#e58139"] ;
367 -> 369 ;
370 [label="weight_in_gms <= 0.12\ngini = 0.48\nsamples = 2\nvalue = [1.22, 0.85]\nclass = [", fillcolor="#f7d8c2"] ;
364 -> 370 ;
371 [label="gini = 0.0\nsamples = 1\nvalue = [1.22, 0.0]\nclass = [", fillcolor="#e58139"] ;
370 -> 371 ;
372 [label="gini = 0.0\nsamples = 1\nvalue = [0.0, 0.85]\nclass = 1", fillcolor="#399de5"] ;
370 -> 372 ;
373 [label="discount_offered <= 0.02\ngini = 0.0\nsamples = 3\nvalue = [0.0, 3.39]\nclass = 1", fillcolor="#399de5"] ;
349 -> 373 ;
374 [label="gini = 0.0\nsamples = 1\nvalue = [0.0, 0.85]\nclass = 1", fillcolor="#399de5"] ;
373 -> 374 ;
375 [label="gini = 0.0\nsamples = 2\nvalue = [0.0, 2.54]\nclass = 1", fillcolor="#399de5"] ;
373 -> 375 ;
376 [label="cost_of_the_product <= 0.7\ngini = 0.18\nsamples = 8\nvalue = [1.22, 11.01]\nclass = 1", fillcolor="#4fa8e8"] ;
348 -> 376 ;
377 [label="gini = 0.0\nsamples = 1\nvalue = [1.22, 0.0]\nclass = [", fillcolor="#e58139"] ;
376 -> 377 ;
378 [label="gini = 0.0\nsamples = 7\nvalue = [0.0, 11.01]\nclass = 1", fillcolor="#399de5"] ;
376 -> 378 ;
379 [label="customer_rating <= 0.62\ngini = 0.35\nsamples = 6\nvalue = [8.54, 2.54]\nclass = [", fillcolor="#eda674"] ;
347 -> 379 ;
380 [label="gini = 0.0\nsamples = 2\nvalue = [0.0, 2.54]\nclass = 1", fillcolor="#399de5"] ;
379 -> 380 ;
381 [label="gini = 0.0\nsamples = 4\nvalue = [8.54, 0.0]\nclass = [", fillcolor="#e58139"] ;
379 -> 381 ;
382 [label="customer_rating <= 0.62\ngini = 0.42\nsamples = 10\nvalue = [3.66, 8.47]\nclass = 1", fillcolor="#8fc7f0"] ;
314 -> 382 ;
383 [label="discount_offered <= 0.09\ngini = 0.22\nsamples = 8\nvalue = [1.22, 8.47]\nclass = 1", fillcolor="#56abe9"] ;
382 -> 383 ;
384 [label="gini = -0.0\nsamples = 7\nvalue = [0.0, 8.47]\nclass = 1", fillcolor="#399de5"] ;
383 -> 384 ;
385 [label="gini = -0.0\nsamples = 1\nvalue = [1.22, 0.0]\nclass = [", fillcolor="#e58139"] ;
383 -> 385 ;
386 [label="gini = 0.0\nsamples = 2\nvalue = [2.44, 0.0]\nclass = [", fillcolor="#e58139"] ;
382 -> 386 ;
387 [label="customer_care_calls <= 0.7\ngini = 0.5\nsamples = 61\nvalue = [50.03, 49.98]\nclass = [", fillcolor="#ffffff"] ;
179 -> 387 ;
388 [label="customer_rating <= 0.38\ngini = 0.48\nsamples = 33\nvalue = [24.41, 35.58]\nclass = 1", fillcolor="#c1e0f7"] ;
387 -> 388 ;
389 [label="discount_offered <= 0.31\ngini = 0.48\nsamples = 15\nvalue = [15.86, 11.01]\nclass = [", fillcolor="#f7d8c2"] ;
388 -> 389 ;
390 [label="weight_in_gms <= 0.05\ngini = 0.47\nsamples = 14\nvalue = [15.86, 9.32]\nclass = [", fillcolor="#f4cbad"] ;
389 -> 390 ;
391 [label="gini = 0.0\nsamples = 5\nvalue = [0.0, 7.62]\nclass = 1", fillcolor="#399de5"] ;
390 -> 391 ;
392 [label="customer_rating <= 0.12\ngini = 0.17\nsamples = 9\nvalue = [15.86, 1.69]\nclass = [", fillcolor="#e88e4e"] ;
390 -> 392 ;
393 [label="gini = 0.0\nsamples = 5\nvalue = [9.76, 0.0]\nclass = [", fillcolor="#e58139"] ;
392 -> 393 ;
394 [label="customer_care_calls <= 0.5\ngini = 0.34\nsamples = 4\nvalue = [6.1, 1.69]\nclass = [", fillcolor="#eca470"] ;
392 -> 394 ;
395 [label="cost_of_the_product <= 0.77\ngini = 0.48\nsamples = 3\nvalue = [2.44, 1.69]\nclass = [", fillcolor="#f7d8c2"] ;
394 -> 395 ;
396 [label="gini = 0.0\nsamples = 2\nvalue = [0.0, 1.69]\nclass = 1", fillcolor="#399de5"] ;
395 -> 396 ;
397 [label="gini = 0.0\nsamples = 1\nvalue = [2.44, 0.0]\nclass = [", fillcolor="#e58139"] ;
395 -> 397 ;
398 [label="gini = 0.0\nsamples = 1\nvalue = [3.66, 0.0]\nclass = [", fillcolor="#e58139"] ;
394 -> 398 ;
399 [label="gini = -0.0\nsamples = 1\nvalue = [0.0, 1.69]\nclass = 1", fillcolor="#399de5"] ;
389 -> 399 ;
400 [label="weight_in_gms <= 0.13\ngini = 0.38\nsamples = 18\nvalue = [8.54, 24.56]\nclass = 1", fillcolor="#7ebfee"] ;
388 -> 400 ;
401 [label="customer_rating <= 0.88\ngini = 0.35\nsamples = 17\nvalue = [7.32, 24.56]\nclass = 1", fillcolor="#74baed"] ;
400 -> 401 ;
402 [label="customer_rating <= 0.62\ngini = 0.29\nsamples = 12\nvalue = [3.66, 16.94]\nclass = 1", fillcolor="#64b2eb"] ;
401 -> 402 ;
403 [label="prior_purchases <= 0.58\ngini = 0.31\nsamples = 8\nvalue = [2.44, 10.16]\nclass = 1", fillcolor="#69b5eb"] ;
402 -> 403 ;
404 [label="mode_of_shipment_Road <= 0.5\ngini = 0.22\nsamples = 5\nvalue = [1.22, 8.47]\nclass = 1", fillcolor="#56abe9"] ;
403 -> 404 ;
405 [label="gini = -0.0\nsamples = 3\nvalue = [0.0, 5.08]\nclass = 1", fillcolor="#399de5"] ;
404 -> 405 ;
406 [label="weight_in_gms <= 0.08\ngini = 0.39\nsamples = 2\nvalue = [1.22, 3.39]\nclass = 1", fillcolor="#80c0ee"] ;
404 -> 406 ;
407 [label="gini = 0.0\nsamples = 1\nvalue = [0.0, 3.39]\nclass = 1", fillcolor="#399de5"] ;
406 -> 407 ;
408 [label="gini = -0.0\nsamples = 1\nvalue = [1.22, 0.0]\nclass = [", fillcolor="#e58139"] ;
406 -> 408 ;
409 [label="customer_care_calls <= 0.5\ngini = 0.49\nsamples = 3\nvalue = [1.22, 1.69]\nclass = 1", fillcolor="#c8e4f8"] ;
403 -> 409 ;
410 [label="weight_in_gms <= 0.04\ngini = 0.48\nsamples = 2\nvalue = [1.22, 0.85]\nclass = [", fillcolor="#f7d8c2"] ;
409 -> 410 ;
411 [label="gini = 0.0\nsamples = 1\nvalue = [1.22, 0.0]\nclass = [", fillcolor="#e58139"] ;
410 -> 411 ;
412 [label="gini = 0.0\nsamples = 1\nvalue = [0.0, 0.85]\nclass = 1", fillcolor="#399de5"] ;
410 -> 412 ;
413 [label="gini = 0.0\nsamples = 1\nvalue = [0.0, 0.85]\nclass = 1", fillcolor="#399de5"] ;
409 -> 413 ;
414 [label="prior_purchases <= 0.58\ngini = 0.26\nsamples = 4\nvalue = [1.22, 6.78]\nclass = 1", fillcolor="#5dafea"] ;
402 -> 414 ;
415 [label="warehouse_block_D <= 0.5\ngini = 0.0\nsamples = 3\nvalue = [0.0, 6.78]\nclass = 1", fillcolor="#399de5"] ;
414 -> 415 ;
416 [label="gini = 0.0\nsamples = 2\nvalue = [0.0, 5.08]\nclass = 1", fillcolor="#399de5"] ;
415 -> 416 ;
417 [label="gini = 0.0\nsamples = 1\nvalue = [0.0, 1.69]\nclass = 1", fillcolor="#399de5"] ;
415 -> 417 ;
418 [label="gini = -0.0\nsamples = 1\nvalue = [1.22, 0.0]\nclass = [", fillcolor="#e58139"] ;
414 -> 418 ;
419 [label="customer_care_calls <= 0.5\ngini = 0.44\nsamples = 5\nvalue = [3.66, 7.62]\nclass = 1", fillcolor="#98ccf1"] ;
401 -> 419 ;
420 [label="gini = 0.0\nsamples = 2\nvalue = [0.0, 3.39]\nclass = 1", fillcolor="#399de5"] ;
419 -> 420 ;
421 [label="cost_of_the_product <= 0.75\ngini = 0.5\nsamples = 3\nvalue = [3.66, 4.24]\nclass = 1", fillcolor="#e4f2fb"] ;
419 -> 421 ;
422 [label="weight_in_gms <= 0.09\ngini = 0.43\nsamples = 2\nvalue = [3.66, 1.69]\nclass = [", fillcolor="#f1bb95"] ;
421 -> 422 ;
423 [label="gini = 0.0\nsamples = 1\nvalue = [0.0, 1.69]\nclass = 1", fillcolor="#399de5"] ;
422 -> 423 ;
424 [label="gini = -0.0\nsamples = 1\nvalue = [3.66, 0.0]\nclass = [", fillcolor="#e58139"] ;
422 -> 424 ;
425 [label="gini = 0.0\nsamples = 1\nvalue = [0.0, 2.54]\nclass = 1", fillcolor="#399de5"] ;
421 -> 425 ;
426 [label="gini = 0.0\nsamples = 1\nvalue = [1.22, 0.0]\nclass = [", fillcolor="#e58139"] ;
400 -> 426 ;
427 [label="cost_of_the_product <= 0.99\ngini = 0.46\nsamples = 28\nvalue = [25.63, 14.4]\nclass = [", fillcolor="#f4c8a8"] ;
387 -> 427 ;
428 [label="product_importance_high <= 0.5\ngini = 0.48\nsamples = 26\nvalue = [21.97, 14.4]\nclass = [", fillcolor="#f6d4bb"] ;
427 -> 428 ;
429 [label="customer_care_calls <= 0.9\ngini = 0.49\nsamples = 25\nvalue = [19.53, 14.4]\nclass = [", fillcolor="#f8decb"] ;
428 -> 429 ;
430 [label="discount_offered <= 0.51\ngini = 0.49\nsamples = 15\nvalue = [10.98, 8.47]\nclass = [", fillcolor="#f9e2d2"] ;
429 -> 430 ;
431 [label="cost_of_the_product <= 0.96\ngini = 0.48\nsamples = 14\nvalue = [10.98, 7.62]\nclass = [", fillcolor="#f7d8c2"] ;
430 -> 431 ;
432 [label="mode_of_shipment_Road <= 0.5\ngini = 0.43\nsamples = 12\nvalue = [10.98, 5.08]\nclass = [", fillcolor="#f1bb95"] ;
431 -> 432 ;
433 [label="customer_rating <= 0.38\ngini = 0.33\nsamples = 8\nvalue = [9.76, 2.54]\nclass = [", fillcolor="#eca26d"] ;
432 -> 433 ;
434 [label="weight_in_gms <= 0.11\ngini = 0.44\nsamples = 3\nvalue = [1.22, 2.54]\nclass = 1", fillcolor="#98ccf1"] ;
433 -> 434 ;
435 [label="weight_in_gms <= 0.07\ngini = 0.0\nsamples = 2\nvalue = [0.0, 2.54]\nclass = 1", fillcolor="#399de5"] ;
434 -> 435 ;
436 [label="gini = 0.0\nsamples = 1\nvalue = [0.0, 1.69]\nclass = 1", fillcolor="#399de5"] ;
435 -> 436 ;
437 [label="gini = 0.0\nsamples = 1\nvalue = [0.0, 0.85]\nclass = 1", fillcolor="#399de5"] ;
435 -> 437 ;
438 [label="gini = -0.0\nsamples = 1\nvalue = [1.22, 0.0]\nclass = [", fillcolor="#e58139"] ;
434 -> 438 ;
439 [label="gini = -0.0\nsamples = 5\nvalue = [8.54, 0.0]\nclass = [", fillcolor="#e58139"] ;
433 -> 439 ;
440 [label="customer_rating <= 0.5\ngini = 0.44\nsamples = 4\nvalue = [1.22, 2.54]\nclass = 1", fillcolor="#98ccf1"] ;
432 -> 440 ;
441 [label="warehouse_block_D <= 0.5\ngini = 0.48\nsamples = 2\nvalue = [1.22, 0.85]\nclass = [", fillcolor="#f7d8c2"] ;
440 -> 441 ;
442 [label="gini = 0.0\nsamples = 1\nvalue = [1.22, 0.0]\nclass = [", fillcolor="#e58139"] ;
441 -> 442 ;
443 [label="gini = 0.0\nsamples = 1\nvalue = [0.0, 0.85]\nclass = 1", fillcolor="#399de5"] ;
441 -> 443 ;
444 [label="weight_in_gms <= 0.13\ngini = 0.0\nsamples = 2\nvalue = [0.0, 1.69]\nclass = 1", fillcolor="#399de5"] ;
440 -> 444 ;
445 [label="gini = 0.0\nsamples = 1\nvalue = [0.0, 0.85]\nclass = 1", fillcolor="#399de5"] ;
444 -> 445 ;
446 [label="gini = 0.0\nsamples = 1\nvalue = [0.0, 0.85]\nclass = 1", fillcolor="#399de5"] ;
444 -> 446 ;
447 [label="gini = -0.0\nsamples = 2\nvalue = [0.0, 2.54]\nclass = 1", fillcolor="#399de5"] ;
431 -> 447 ;
448 [label="gini = 0.0\nsamples = 1\nvalue = [0.0, 0.85]\nclass = 1", fillcolor="#399de5"] ;
430 -> 448 ;
449 [label="customer_rating <= 0.38\ngini = 0.48\nsamples = 10\nvalue = [8.54, 5.93]\nclass = [", fillcolor="#f7d8c2"] ;
429 -> 449 ;
450 [label="customer_rating <= 0.12\ngini = 0.31\nsamples = 5\nvalue = [1.22, 5.08]\nclass = 1", fillcolor="#69b5eb"] ;
449 -> 450 ;
451 [label="gini = 0.0\nsamples = 1\nvalue = [0.0, 2.54]\nclass = 1", fillcolor="#399de5"] ;
450 -> 451 ;
452 [label="weight_in_gms <= 0.04\ngini = 0.44\nsamples = 4\nvalue = [1.22, 2.54]\nclass = 1", fillcolor="#98ccf1"] ;
450 -> 452 ;
453 [label="gini = 0.0\nsamples = 2\nvalue = [0.0, 1.69]\nclass = 1", fillcolor="#399de5"] ;
452 -> 453 ;
454 [label="cost_of_the_product <= 0.75\ngini = 0.48\nsamples = 2\nvalue = [1.22, 0.85]\nclass = [", fillcolor="#f7d8c2"] ;
452 -> 454 ;
455 [label="gini = 0.0\nsamples = 1\nvalue = [1.22, 0.0]\nclass = [", fillcolor="#e58139"] ;
454 -> 455 ;
456 [label="gini = 0.0\nsamples = 1\nvalue = [0.0, 0.85]\nclass = 1", fillcolor="#399de5"] ;
454 -> 456 ;
457 [label="weight_in_gms <= 0.03\ngini = 0.19\nsamples = 5\nvalue = [7.32, 0.85]\nclass = [", fillcolor="#e89050"] ;
449 -> 457 ;
458 [label="gini = 0.0\nsamples = 1\nvalue = [0.0, 0.85]\nclass = 1", fillcolor="#399de5"] ;
457 -> 458 ;
459 [label="gini = -0.0\nsamples = 4\nvalue = [7.32, 0.0]\nclass = [", fillcolor="#e58139"] ;
457 -> 459 ;
460 [label="gini = 0.0\nsamples = 1\nvalue = [2.44, 0.0]\nclass = [", fillcolor="#e58139"] ;
428 -> 460 ;
461 [label="gini = 0.0\nsamples = 2\nvalue = [3.66, 0.0]\nclass = [", fillcolor="#e58139"] ;
427 -> 461 ;
462 [label="warehouse_block_D <= 0.5\ngini = 0.0\nsamples = 59\nvalue = [0.0, 72.0]\nclass = 1", fillcolor="#399de5"] ;
150 -> 462 ;
463 [label="gini = 0.0\nsamples = 47\nvalue = [0.0, 56.75]\nclass = 1", fillcolor="#399de5"] ;
462 -> 463 ;
464 [label="gini = 0.0\nsamples = 12\nvalue = [0.0, 15.25]\nclass = 1", fillcolor="#399de5"] ;
462 -> 464 ;
465 [label="weight_in_gms <= 0.14\ngini = 0.48\nsamples = 525\nvalue = [512.55, 346.45]\nclass = [", fillcolor="#f7d6bf"] ;
149 -> 465 ;
466 [label="customer_care_calls <= 0.1\ngini = 0.45\nsamples = 461\nvalue = [508.88, 266.82]\nclass = [", fillcolor="#f3c3a1"] ;
465 -> 466 ;
467 [label="gini = 0.0\nsamples = 4\nvalue = [0.0, 5.93]\nclass = 1", fillcolor="#399de5"] ;
466 -> 467 ;
468 [label="weight_in_gms <= 0.14\ngini = 0.45\nsamples = 457\nvalue = [508.88, 260.89]\nclass = [", fillcolor="#f2c29f"] ;
466 -> 468 ;
469 [label="discount_offered <= 0.04\ngini = 0.46\nsamples = 447\nvalue = [483.26, 260.89]\nclass = [", fillcolor="#f3c5a4"] ;
468 -> 469 ;
470 [label="customer_care_calls <= 0.9\ngini = 0.49\nsamples = 119\nvalue = [112.27, 90.63]\nclass = [", fillcolor="#fae7d9"] ;
469 -> 470 ;
471 [label="weight_in_gms <= 0.06\ngini = 0.48\nsamples = 97\nvalue = [101.29, 71.15]\nclass = [", fillcolor="#f7dac4"] ;
470 -> 471 ;
472 [label="weight_in_gms <= 0.03\ngini = 0.44\nsamples = 50\nvalue = [61.02, 29.65]\nclass = [", fillcolor="#f2be99"] ;
471 -> 472 ;
473 [label="cost_of_the_product <= 0.68\ngini = 0.5\nsamples = 21\nvalue = [18.31, 17.79]\nclass = [", fillcolor="#fefbf9"] ;
472 -> 473 ;
474 [label="weight_in_gms <= 0.02\ngini = 0.25\nsamples = 5\nvalue = [9.76, 1.69]\nclass = [", fillcolor="#ea975b"] ;
473 -> 474 ;
475 [label="weight_in_gms <= 0.01\ngini = 0.43\nsamples = 3\nvalue = [3.66, 1.69]\nclass = [", fillcolor="#f1bb95"] ;
474 -> 475 ;
476 [label="gini = -0.0\nsamples = 2\nvalue = [3.66, 0.0]\nclass = [", fillcolor="#e58139"] ;
475 -> 476 ;
477 [label="gini = 0.0\nsamples = 1\nvalue = [0.0, 1.69]\nclass = 1", fillcolor="#399de5"] ;
475 -> 477 ;
478 [label="gini = 0.0\nsamples = 2\nvalue = [6.1, 0.0]\nclass = [", fillcolor="#e58139"] ;
474 -> 478 ;
479 [label="cost_of_the_product <= 0.73\ngini = 0.45\nsamples = 16\nvalue = [8.54, 16.09]\nclass = 1", fillcolor="#a2d1f3"] ;
473 -> 479 ;
480 [label="gini = 0.0\nsamples = 4\nvalue = [0.0, 6.78]\nclass = 1", fillcolor="#399de5"] ;
479 -> 480 ;
481 [label="customer_rating <= 0.62\ngini = 0.5\nsamples = 12\nvalue = [8.54, 9.32]\nclass = 1", fillcolor="#eff7fd"] ;
479 -> 481 ;
482 [label="weight_in_gms <= 0.02\ngini = 0.38\nsamples = 6\nvalue = [7.32, 2.54]\nclass = [", fillcolor="#eead7e"] ;
481 -> 482 ;
483 [label="gini = -0.0\nsamples = 4\nvalue = [7.32, 0.0]\nclass = [", fillcolor="#e58139"] ;
482 -> 483 ;
484 [label="discount_offered <= 0.03\ngini = 0.0\nsamples = 2\nvalue = [0.0, 2.54]\nclass = 1", fillcolor="#399de5"] ;
482 -> 484 ;
485 [label="gini = 0.0\nsamples = 1\nvalue = [0.0, 0.85]\nclass = 1", fillcolor="#399de5"] ;
484 -> 485 ;
486 [label="gini = 0.0\nsamples = 1\nvalue = [0.0, 1.69]\nclass = 1", fillcolor="#399de5"] ;
484 -> 486 ;
487 [label="cost_of_the_product <= 0.75\ngini = 0.26\nsamples = 6\nvalue = [1.22, 6.78]\nclass = 1", fillcolor="#5dafea"] ;
481 -> 487 ;
488 [label="gini = 0.0\nsamples = 1\nvalue = [1.22, 0.0]\nclass = [", fillcolor="#e58139"] ;
487 -> 488 ;
489 [label="gini = 0.0\nsamples = 5\nvalue = [0.0, 6.78]\nclass = 1", fillcolor="#399de5"] ;
487 -> 489 ;
490 [label="customer_rating <= 0.12\ngini = 0.34\nsamples = 29\nvalue = [42.71, 11.86]\nclass = [", fillcolor="#eca470"] ;
472 -> 490 ;
491 [label="gini = 0.0\nsamples = 6\nvalue = [12.2, 0.0]\nclass = [", fillcolor="#e58139"] ;
490 -> 491 ;
492 [label="discount_offered <= 0.01\ngini = 0.4\nsamples = 23\nvalue = [30.51, 11.86]\nclass = [", fillcolor="#efb286"] ;
490 -> 492 ;
493 [label="customer_rating <= 0.88\ngini = 0.47\nsamples = 8\nvalue = [9.76, 5.93]\nclass = [", fillcolor="#f5ceb1"] ;
492 -> 493 ;
494 [label="mode_of_shipment_Road <= 0.5\ngini = 0.5\nsamples = 6\nvalue = [4.88, 5.93]\nclass = 1", fillcolor="#dceefa"] ;
493 -> 494 ;
495 [label="weight_in_gms <= 0.04\ngini = 0.25\nsamples = 3\nvalue = [4.88, 0.85]\nclass = [", fillcolor="#ea975b"] ;
494 -> 495 ;
496 [label="gini = 0.0\nsamples = 2\nvalue = [4.88, 0.0]\nclass = [", fillcolor="#e58139"] ;
495 -> 496 ;
497 [label="gini = 0.0\nsamples = 1\nvalue = [0.0, 0.85]\nclass = 1", fillcolor="#399de5"] ;
495 -> 497 ;
498 [label="customer_rating <= 0.38\ngini = 0.0\nsamples = 3\nvalue = [0.0, 5.08]\nclass = 1", fillcolor="#399de5"] ;
494 -> 498 ;
499 [label="gini = 0.0\nsamples = 1\nvalue = [0.0, 2.54]\nclass = 1", fillcolor="#399de5"] ;
498 -> 499 ;
500 [label="gini = 0.0\nsamples = 2\nvalue = [0.0, 2.54]\nclass = 1", fillcolor="#399de5"] ;
498 -> 500 ;
501 [label="warehouse_block_D <= 0.5\ngini = 0.0\nsamples = 2\nvalue = [4.88, 0.0]\nclass = [", fillcolor="#e58139"] ;
493 -> 501 ;
502 [label="gini = 0.0\nsamples = 1\nvalue = [3.66, 0.0]\nclass = [", fillcolor="#e58139"] ;
501 -> 502 ;
503 [label="gini = 0.0\nsamples = 1\nvalue = [1.22, 0.0]\nclass = [", fillcolor="#e58139"] ;
501 -> 503 ;
504 [label="weight_in_gms <= 0.04\ngini = 0.35\nsamples = 15\nvalue = [20.75, 5.93]\nclass = [", fillcolor="#eca572"] ;
492 -> 504 ;
505 [label="customer_care_calls <= 0.7\ngini = 0.5\nsamples = 5\nvalue = [3.66, 3.39]\nclass = [", fillcolor="#fdf6f0"] ;
504 -> 505 ;
506 [label="customer_rating <= 0.88\ngini = 0.39\nsamples = 4\nvalue = [1.22, 3.39]\nclass = 1", fillcolor="#80c0ee"] ;
505 -> 506 ;
507 [label="discount_offered <= 0.03\ngini = 0.0\nsamples = 3\nvalue = [0.0, 3.39]\nclass = 1", fillcolor="#399de5"] ;
506 -> 507 ;
508 [label="gini = 0.0\nsamples = 1\nvalue = [0.0, 0.85]\nclass = 1", fillcolor="#399de5"] ;
507 -> 508 ;
509 [label="gini = 0.0\nsamples = 2\nvalue = [0.0, 2.54]\nclass = 1", fillcolor="#399de5"] ;
507 -> 509 ;
510 [label="gini = -0.0\nsamples = 1\nvalue = [1.22, 0.0]\nclass = [", fillcolor="#e58139"] ;
506 -> 510 ;
511 [label="gini = 0.0\nsamples = 1\nvalue = [2.44, 0.0]\nclass = [", fillcolor="#e58139"] ;
505 -> 511 ;
512 [label="warehouse_block_D <= 0.5\ngini = 0.23\nsamples = 10\nvalue = [17.08, 2.54]\nclass = [", fillcolor="#e99456"] ;
504 -> 512 ;
513 [label="customer_care_calls <= 0.7\ngini = 0.1\nsamples = 8\nvalue = [14.64, 0.85]\nclass = [", fillcolor="#e78844"] ;
512 -> 513 ;
514 [label="gini = 0.0\nsamples = 4\nvalue = [9.76, 0.0]\nclass = [", fillcolor="#e58139"] ;
513 -> 514 ;
515 [label="customer_rating <= 0.88\ngini = 0.25\nsamples = 4\nvalue = [4.88, 0.85]\nclass = [", fillcolor="#ea975b"] ;
513 -> 515 ;
516 [label="gini = 0.0\nsamples = 3\nvalue = [4.88, 0.0]\nclass = [", fillcolor="#e58139"] ;
515 -> 516 ;
517 [label="gini = 0.0\nsamples = 1\nvalue = [0.0, 0.85]\nclass = 1", fillcolor="#399de5"] ;
515 -> 517 ;
518 [label="cost_of_the_product <= 0.86\ngini = 0.48\nsamples = 2\nvalue = [2.44, 1.69]\nclass = [", fillcolor="#f7d8c2"] ;
512 -> 518 ;
519 [label="gini = 0.0\nsamples = 1\nvalue = [0.0, 1.69]\nclass = 1", fillcolor="#399de5"] ;
518 -> 519 ;
520 [label="gini = 0.0\nsamples = 1\nvalue = [2.44, 0.0]\nclass = [", fillcolor="#e58139"] ;
518 -> 520 ;
521 [label="prior_purchases <= 0.58\ngini = 0.5\nsamples = 47\nvalue = [40.27, 41.51]\nclass = 1", fillcolor="#f9fcfe"] ;
471 -> 521 ;
522 [label="prior_purchases <= 0.42\ngini = 0.5\nsamples = 45\nvalue = [37.83, 41.51]\nclass = 1", fillcolor="#edf6fd"] ;
521 -> 522 ;
523 [label="weight_in_gms <= 0.13\ngini = 0.49\nsamples = 22\nvalue = [24.41, 17.79]\nclass = [", fillcolor="#f8ddc9"] ;
522 -> 523 ;
524 [label="discount_offered <= 0.03\ngini = 0.46\nsamples = 20\nvalue = [24.41, 13.55]\nclass = [", fillcolor="#f3c7a7"] ;
523 -> 524 ;
525 [label="customer_rating <= 0.88\ngini = 0.35\nsamples = 11\nvalue = [14.64, 4.24]\nclass = [", fillcolor="#eda572"] ;
524 -> 525 ;
526 [label="customer_rating <= 0.12\ngini = 0.25\nsamples = 10\nvalue = [14.64, 2.54]\nclass = [", fillcolor="#ea975b"] ;
525 -> 526 ;
527 [label="gini = 0.0\nsamples = 1\nvalue = [0.0, 0.85]\nclass = 1", fillcolor="#399de5"] ;
526 -> 527 ;
528 [label="weight_in_gms <= 0.1\ngini = 0.19\nsamples = 9\nvalue = [14.64, 1.69]\nclass = [", fillcolor="#e89050"] ;
526 -> 528 ;
529 [label="gini = 0.0\nsamples = 4\nvalue = [7.32, 0.0]\nclass = [", fillcolor="#e58139"] ;
528 -> 529 ;
530 [label="cost_of_the_product <= 0.76\ngini = 0.31\nsamples = 5\nvalue = [7.32, 1.69]\nclass = [", fillcolor="#eb9e67"] ;
528 -> 530 ;
531 [label="gini = 0.0\nsamples = 1\nvalue = [0.0, 0.85]\nclass = 1", fillcolor="#399de5"] ;
530 -> 531 ;
532 [label="cost_of_the_product <= 0.78\ngini = 0.19\nsamples = 4\nvalue = [7.32, 0.85]\nclass = [", fillcolor="#e89050"] ;
530 -> 532 ;
533 [label="gini = 0.0\nsamples = 2\nvalue = [6.1, 0.0]\nclass = [", fillcolor="#e58139"] ;
532 -> 533 ;
534 [label="cost_of_the_product <= 0.82\ngini = 0.48\nsamples = 2\nvalue = [1.22, 0.85]\nclass = [", fillcolor="#f7d8c2"] ;
532 -> 534 ;
535 [label="gini = 0.0\nsamples = 1\nvalue = [0.0, 0.85]\nclass = 1", fillcolor="#399de5"] ;
534 -> 535 ;
536 [label="gini = 0.0\nsamples = 1\nvalue = [1.22, 0.0]\nclass = [", fillcolor="#e58139"] ;
534 -> 536 ;
537 [label="gini = -0.0\nsamples = 1\nvalue = [0.0, 1.69]\nclass = 1", fillcolor="#399de5"] ;
525 -> 537 ;
538 [label="cost_of_the_product <= 0.84\ngini = 0.5\nsamples = 9\nvalue = [9.76, 9.32]\nclass = [", fillcolor="#fef9f6"] ;
524 -> 538 ;
539 [label="weight_in_gms <= 0.11\ngini = 0.44\nsamples = 6\nvalue = [3.66, 7.62]\nclass = 1", fillcolor="#98ccf1"] ;
538 -> 539 ;
540 [label="warehouse_block_D <= 0.5\ngini = 0.24\nsamples = 5\nvalue = [1.22, 7.62]\nclass = 1", fillcolor="#59ade9"] ;
539 -> 540 ;
541 [label="customer_rating <= 0.38\ngini = 0.0\nsamples = 4\nvalue = [0.0, 7.62]\nclass = 1", fillcolor="#399de5"] ;
540 -> 541 ;
542 [label="gini = 0.0\nsamples = 1\nvalue = [0.0, 3.39]\nclass = 1", fillcolor="#399de5"] ;
541 -> 542 ;
543 [label="gini = 0.0\nsamples = 3\nvalue = [0.0, 4.24]\nclass = 1", fillcolor="#399de5"] ;
541 -> 543 ;
544 [label="gini = -0.0\nsamples = 1\nvalue = [1.22, 0.0]\nclass = [", fillcolor="#e58139"] ;
540 -> 544 ;
545 [label="gini = -0.0\nsamples = 1\nvalue = [2.44, 0.0]\nclass = [", fillcolor="#e58139"] ;
539 -> 545 ;
546 [label="customer_rating <= 0.5\ngini = 0.34\nsamples = 3\nvalue = [6.1, 1.69]\nclass = [", fillcolor="#eca470"] ;
538 -> 546 ;
547 [label="cost_of_the_product <= 0.87\ngini = 0.43\nsamples = 2\nvalue = [3.66, 1.69]\nclass = [", fillcolor="#f1bb95"] ;
546 -> 547 ;
548 [label="gini = 0.0\nsamples = 1\nvalue = [3.66, 0.0]\nclass = [", fillcolor="#e58139"] ;
547 -> 548 ;
549 [label="gini = -0.0\nsamples = 1\nvalue = [0.0, 1.69]\nclass = 1", fillcolor="#399de5"] ;
547 -> 549 ;
550 [label="gini = 0.0\nsamples = 1\nvalue = [2.44, 0.0]\nclass = [", fillcolor="#e58139"] ;
546 -> 550 ;
551 [label="mode_of_shipment_Road <= 0.5\ngini = 0.0\nsamples = 2\nvalue = [0.0, 4.24]\nclass = 1", fillcolor="#399de5"] ;
523 -> 551 ;
552 [label="gini = 0.0\nsamples = 1\nvalue = [0.0, 2.54]\nclass = 1", fillcolor="#399de5"] ;
551 -> 552 ;
553 [label="gini = 0.0\nsamples = 1\nvalue = [0.0, 1.69]\nclass = 1", fillcolor="#399de5"] ;
551 -> 553 ;
554 [label="mode_of_shipment_Road <= 0.5\ngini = 0.46\nsamples = 23\nvalue = [13.42, 23.72]\nclass = 1", fillcolor="#a9d4f4"] ;
522 -> 554 ;
555 [label="weight_in_gms <= 0.1\ngini = 0.42\nsamples = 20\nvalue = [9.76, 22.87]\nclass = 1", fillcolor="#8ec7f0"] ;
554 -> 555 ;
556 [label="weight_in_gms <= 0.1\ngini = 0.21\nsamples = 12\nvalue = [2.44, 17.79]\nclass = 1", fillcolor="#54aae9"] ;
555 -> 556 ;
557 [label="warehouse_block_D <= 0.5\ngini = 0.3\nsamples = 10\nvalue = [2.44, 11.01]\nclass = 1", fillcolor="#65b3eb"] ;
556 -> 557 ;
558 [label="cost_of_the_product <= 0.62\ngini = 0.31\nsamples = 9\nvalue = [2.44, 10.16]\nclass = 1", fillcolor="#69b5eb"] ;
557 -> 558 ;
559 [label="gini = 0.0\nsamples = 1\nvalue = [1.22, 0.0]\nclass = [", fillcolor="#e58139"] ;
558 -> 559 ;
560 [label="weight_in_gms <= 0.09\ngini = 0.19\nsamples = 8\nvalue = [1.22, 10.16]\nclass = 1", fillcolor="#51a9e8"] ;
558 -> 560 ;
561 [label="customer_rating <= 0.12\ngini = 0.0\nsamples = 7\nvalue = [0.0, 10.16]\nclass = 1", fillcolor="#399de5"] ;
560 -> 561 ;
562 [label="gini = 0.0\nsamples = 2\nvalue = [0.0, 2.54]\nclass = 1", fillcolor="#399de5"] ;
561 -> 562 ;
563 [label="gini = 0.0\nsamples = 5\nvalue = [0.0, 7.62]\nclass = 1", fillcolor="#399de5"] ;
561 -> 563 ;
564 [label="gini = -0.0\nsamples = 1\nvalue = [1.22, 0.0]\nclass = [", fillcolor="#e58139"] ;
560 -> 564 ;
565 [label="gini = 0.0\nsamples = 1\nvalue = [0.0, 0.85]\nclass = 1", fillcolor="#399de5"] ;
557 -> 565 ;
566 [label="gini = 0.0\nsamples = 2\nvalue = [0.0, 6.78]\nclass = 1", fillcolor="#399de5"] ;
556 -> 566 ;
567 [label="customer_care_calls <= 0.5\ngini = 0.48\nsamples = 8\nvalue = [7.32, 5.08]\nclass = [", fillcolor="#f7d8c2"] ;
555 -> 567 ;
568 [label="gini = 0.0\nsamples = 2\nvalue = [3.66, 0.0]\nclass = [", fillcolor="#e58139"] ;
567 -> 568 ;
569 [label="warehouse_block_D <= 0.5\ngini = 0.49\nsamples = 6\nvalue = [3.66, 5.08]\nclass = 1", fillcolor="#c8e4f8"] ;
567 -> 569 ;
570 [label="cost_of_the_product <= 0.71\ngini = 0.5\nsamples = 5\nvalue = [3.66, 3.39]\nclass = [", fillcolor="#fdf6f0"] ;
569 -> 570 ;
571 [label="discount_offered <= 0.01\ngini = 0.43\nsamples = 4\nvalue = [3.66, 1.69]\nclass = [", fillcolor="#f1bb95"] ;
570 -> 571 ;
572 [label="gini = 0.0\nsamples = 1\nvalue = [0.0, 0.85]\nclass = 1", fillcolor="#399de5"] ;
571 -> 572 ;
573 [label="weight_in_gms <= 0.13\ngini = 0.31\nsamples = 3\nvalue = [3.66, 0.85]\nclass = [", fillcolor="#eb9e67"] ;
571 -> 573 ;
574 [label="cost_of_the_product <= 0.64\ngini = 0.48\nsamples = 2\nvalue = [1.22, 0.85]\nclass = [", fillcolor="#f7d8c2"] ;
573 -> 574 ;
575 [label="gini = 0.0\nsamples = 1\nvalue = [1.22, 0.0]\nclass = [", fillcolor="#e58139"] ;
574 -> 575 ;
576 [label="gini = 0.0\nsamples = 1\nvalue = [0.0, 0.85]\nclass = 1", fillcolor="#399de5"] ;
574 -> 576 ;
577 [label="gini = 0.0\nsamples = 1\nvalue = [2.44, 0.0]\nclass = [", fillcolor="#e58139"] ;
573 -> 577 ;
578 [label="gini = -0.0\nsamples = 1\nvalue = [0.0, 1.69]\nclass = 1", fillcolor="#399de5"] ;
570 -> 578 ;
579 [label="gini = 0.0\nsamples = 1\nvalue = [0.0, 1.69]\nclass = 1", fillcolor="#399de5"] ;
569 -> 579 ;
580 [label="cost_of_the_product <= 0.72\ngini = 0.31\nsamples = 3\nvalue = [3.66, 0.85]\nclass = [", fillcolor="#eb9e67"] ;
554 -> 580 ;
581 [label="gini = -0.0\nsamples = 2\nvalue = [3.66, 0.0]\nclass = [", fillcolor="#e58139"] ;
580 -> 581 ;
582 [label="gini = 0.0\nsamples = 1\nvalue = [0.0, 0.85]\nclass = 1", fillcolor="#399de5"] ;
580 -> 582 ;
583 [label="customer_rating <= 0.75\ngini = 0.0\nsamples = 2\nvalue = [2.44, 0.0]\nclass = [", fillcolor="#e58139"] ;
521 -> 583 ;
584 [label="gini = 0.0\nsamples = 1\nvalue = [1.22, 0.0]\nclass = [", fillcolor="#e58139"] ;
583 -> 584 ;
585 [label="gini = 0.0\nsamples = 1\nvalue = [1.22, 0.0]\nclass = [", fillcolor="#e58139"] ;
583 -> 585 ;
586 [label="weight_in_gms <= 0.07\ngini = 0.46\nsamples = 22\nvalue = [10.98, 19.48]\nclass = 1", fillcolor="#a9d4f4"] ;
470 -> 586 ;
587 [label="weight_in_gms <= 0.04\ngini = 0.5\nsamples = 13\nvalue = [8.54, 7.62]\nclass = [", fillcolor="#fcf1ea"] ;
586 -> 587 ;
588 [label="weight_in_gms <= 0.03\ngini = 0.39\nsamples = 9\nvalue = [2.44, 6.78]\nclass = 1", fillcolor="#80c0ee"] ;
587 -> 588 ;
589 [label="prior_purchases <= 0.42\ngini = 0.5\nsamples = 4\nvalue = [2.44, 2.54]\nclass = 1", fillcolor="#f7fbfe"] ;
588 -> 589 ;
590 [label="cost_of_the_product <= 0.84\ngini = 0.44\nsamples = 3\nvalue = [1.22, 2.54]\nclass = 1", fillcolor="#98ccf1"] ;
589 -> 590 ;
591 [label="gini = 0.0\nsamples = 1\nvalue = [1.22, 0.0]\nclass = [", fillcolor="#e58139"] ;
590 -> 591 ;
592 [label="gini = 0.0\nsamples = 2\nvalue = [0.0, 2.54]\nclass = 1", fillcolor="#399de5"] ;
590 -> 592 ;
593 [label="gini = -0.0\nsamples = 1\nvalue = [1.22, 0.0]\nclass = [", fillcolor="#e58139"] ;
589 -> 593 ;
594 [label="gini = -0.0\nsamples = 5\nvalue = [0.0, 4.24]\nclass = 1", fillcolor="#399de5"] ;
588 -> 594 ;
595 [label="weight_in_gms <= 0.05\ngini = 0.21\nsamples = 4\nvalue = [6.1, 0.85]\nclass = [", fillcolor="#e99254"] ;
587 -> 595 ;
596 [label="gini = 0.0\nsamples = 2\nvalue = [4.88, 0.0]\nclass = [", fillcolor="#e58139"] ;
595 -> 596 ;
597 [label="weight_in_gms <= 0.06\ngini = 0.48\nsamples = 2\nvalue = [1.22, 0.85]\nclass = [", fillcolor="#f7d8c2"] ;
595 -> 597 ;
598 [label="gini = 0.0\nsamples = 1\nvalue = [0.0, 0.85]\nclass = 1", fillcolor="#399de5"] ;
597 -> 598 ;
599 [label="gini = 0.0\nsamples = 1\nvalue = [1.22, 0.0]\nclass = [", fillcolor="#e58139"] ;
597 -> 599 ;
600 [label="weight_in_gms <= 0.1\ngini = 0.28\nsamples = 9\nvalue = [2.44, 11.86]\nclass = 1", fillcolor="#62b1ea"] ;
586 -> 600 ;
601 [label="gini = 0.0\nsamples = 3\nvalue = [0.0, 5.93]\nclass = 1", fillcolor="#399de5"] ;
600 -> 601 ;
602 [label="discount_offered <= 0.03\ngini = 0.41\nsamples = 6\nvalue = [2.44, 5.93]\nclass = 1", fillcolor="#8bc5f0"] ;
600 -> 602 ;
603 [label="gini = 0.0\nsamples = 4\nvalue = [0.0, 4.24]\nclass = 1", fillcolor="#399de5"] ;
602 -> 603 ;
604 [label="weight_in_gms <= 0.12\ngini = 0.48\nsamples = 2\nvalue = [2.44, 1.69]\nclass = [", fillcolor="#f7d8c2"] ;
602 -> 604 ;
605 [label="gini = 0.0\nsamples = 1\nvalue = [2.44, 0.0]\nclass = [", fillcolor="#e58139"] ;
604 -> 605 ;
606 [label="gini = 0.0\nsamples = 1\nvalue = [0.0, 1.69]\nclass = 1", fillcolor="#399de5"] ;
604 -> 606 ;
607 [label="weight_in_gms <= 0.09\ngini = 0.43\nsamples = 328\nvalue = [370.99, 170.26]\nclass = [", fillcolor="#f1bb94"] ;
469 -> 607 ;
608 [label="weight_in_gms <= 0.09\ngini = 0.4\nsamples = 220\nvalue = [275.8, 105.03]\nclass = [", fillcolor="#efb184"] ;
607 -> 608 ;
609 [label="cost_of_the_product <= 0.7\ngini = 0.41\nsamples = 213\nvalue = [261.15, 105.03]\nclass = [", fillcolor="#efb489"] ;
608 -> 609 ;
610 [label="warehouse_block_D <= 0.5\ngini = 0.31\nsamples = 55\nvalue = [86.64, 20.33]\nclass = [", fillcolor="#eb9f67"] ;
609 -> 610 ;
611 [label="weight_in_gms <= 0.07\ngini = 0.38\nsamples = 42\nvalue = [53.7, 18.64]\nclass = [", fillcolor="#eead7e"] ;
610 -> 611 ;
612 [label="cost_of_the_product <= 0.68\ngini = 0.33\nsamples = 32\nvalue = [45.15, 11.86]\nclass = [", fillcolor="#eca26d"] ;
611 -> 612 ;
613 [label="discount_offered <= 0.06\ngini = 0.42\nsamples = 21\nvalue = [24.41, 10.16]\nclass = [", fillcolor="#f0b58b"] ;
612 -> 613 ;
614 [label="gini = 0.0\nsamples = 2\nvalue = [0.0, 2.54]\nclass = 1", fillcolor="#399de5"] ;
613 -> 614 ;
615 [label="prior_purchases <= 0.58\ngini = 0.36\nsamples = 19\nvalue = [24.41, 7.62]\nclass = [", fillcolor="#eda877"] ;
613 -> 615 ;
616 [label="weight_in_gms <= 0.0\ngini = 0.41\nsamples = 15\nvalue = [17.08, 6.78]\nclass = [", fillcolor="#efb388"] ;
615 -> 616 ;
617 [label="gini = 0.0\nsamples = 1\nvalue = [0.0, 0.85]\nclass = 1", fillcolor="#399de5"] ;
616 -> 617 ;
618 [label="mode_of_shipment_Road <= 0.5\ngini = 0.38\nsamples = 14\nvalue = [17.08, 5.93]\nclass = [", fillcolor="#eead7e"] ;
616 -> 618 ;
619 [label="discount_offered <= 0.14\ngini = 0.27\nsamples = 10\nvalue = [13.42, 2.54]\nclass = [", fillcolor="#ea995e"] ;
618 -> 619 ;
620 [label="customer_care_calls <= 0.5\ngini = 0.11\nsamples = 9\nvalue = [13.42, 0.85]\nclass = [", fillcolor="#e78945"] ;
619 -> 620 ;
621 [label="gini = 0.0\nsamples = 3\nvalue = [3.66, 0.0]\nclass = [", fillcolor="#e58139"] ;
620 -> 621 ;
622 [label="customer_rating <= 0.5\ngini = 0.15\nsamples = 6\nvalue = [9.76, 0.85]\nclass = [", fillcolor="#e78c4a"] ;
620 -> 622 ;
623 [label="gini = 0.0\nsamples = 3\nvalue = [6.1, 0.0]\nclass = [", fillcolor="#e58139"] ;
622 -> 623 ;
624 [label="cost_of_the_product <= 0.6\ngini = 0.31\nsamples = 3\nvalue = [3.66, 0.85]\nclass = [", fillcolor="#eb9e67"] ;
622 -> 624 ;
625 [label="gini = 0.0\nsamples = 1\nvalue = [0.0, 0.85]\nclass = 1", fillcolor="#399de5"] ;
624 -> 625 ;
626 [label="gini = 0.0\nsamples = 2\nvalue = [3.66, 0.0]\nclass = [", fillcolor="#e58139"] ;
624 -> 626 ;
627 [label="gini = 0.0\nsamples = 1\nvalue = [0.0, 1.69]\nclass = 1", fillcolor="#399de5"] ;
619 -> 627 ;
628 [label="customer_rating <= 0.12\ngini = 0.5\nsamples = 4\nvalue = [3.66, 3.39]\nclass = [", fillcolor="#fdf6f0"] ;
618 -> 628 ;
629 [label="gini = 0.0\nsamples = 1\nvalue = [2.44, 0.0]\nclass = [", fillcolor="#e58139"] ;
628 -> 629 ;
630 [label="discount_offered <= 0.14\ngini = 0.39\nsamples = 3\nvalue = [1.22, 3.39]\nclass = 1", fillcolor="#80c0ee"] ;
628 -> 630 ;
631 [label="discount_offered <= 0.12\ngini = 0.48\nsamples = 2\nvalue = [1.22, 0.85]\nclass = [", fillcolor="#f7d8c2"] ;
630 -> 631 ;
632 [label="gini = 0.0\nsamples = 1\nvalue = [0.0, 0.85]\nclass = 1", fillcolor="#399de5"] ;
631 -> 632 ;
633 [label="gini = 0.0\nsamples = 1\nvalue = [1.22, 0.0]\nclass = [", fillcolor="#e58139"] ;
631 -> 633 ;
634 [label="gini = 0.0\nsamples = 1\nvalue = [0.0, 2.54]\nclass = 1", fillcolor="#399de5"] ;
630 -> 634 ;
635 [label="cost_of_the_product <= 0.6\ngini = 0.19\nsamples = 4\nvalue = [7.32, 0.85]\nclass = [", fillcolor="#e89050"] ;
615 -> 635 ;
636 [label="discount_offered <= 0.11\ngini = 0.48\nsamples = 2\nvalue = [1.22, 0.85]\nclass = [", fillcolor="#f7d8c2"] ;
635 -> 636 ;
637 [label="gini = 0.0\nsamples = 1\nvalue = [0.0, 0.85]\nclass = 1", fillcolor="#399de5"] ;
636 -> 637 ;
638 [label="gini = 0.0\nsamples = 1\nvalue = [1.22, 0.0]\nclass = [", fillcolor="#e58139"] ;
636 -> 638 ;
639 [label="gini = -0.0\nsamples = 2\nvalue = [6.1, 0.0]\nclass = [", fillcolor="#e58139"] ;
635 -> 639 ;
640 [label="prior_purchases <= 0.42\ngini = 0.14\nsamples = 11\nvalue = [20.75, 1.69]\nclass = [", fillcolor="#e78b49"] ;
612 -> 640 ;
641 [label="customer_rating <= 0.38\ngini = 0.48\nsamples = 2\nvalue = [1.22, 0.85]\nclass = [", fillcolor="#f7d8c2"] ;
640 -> 641 ;
642 [label="gini = 0.0\nsamples = 1\nvalue = [1.22, 0.0]\nclass = [", fillcolor="#e58139"] ;
641 -> 642 ;
643 [label="gini = 0.0\nsamples = 1\nvalue = [0.0, 0.85]\nclass = 1", fillcolor="#399de5"] ;
641 -> 643 ;
644 [label="customer_rating <= 0.38\ngini = 0.08\nsamples = 9\nvalue = [19.53, 0.85]\nclass = [", fillcolor="#e68642"] ;
640 -> 644 ;
645 [label="weight_in_gms <= 0.02\ngini = 0.21\nsamples = 3\nvalue = [6.1, 0.85]\nclass = [", fillcolor="#e99254"] ;
644 -> 645 ;
646 [label="gini = 0.0\nsamples = 1\nvalue = [0.0, 0.85]\nclass = 1", fillcolor="#399de5"] ;
645 -> 646 ;
647 [label="gini = 0.0\nsamples = 2\nvalue = [6.1, 0.0]\nclass = [", fillcolor="#e58139"] ;
645 -> 647 ;
648 [label="gini = -0.0\nsamples = 6\nvalue = [13.42, 0.0]\nclass = [", fillcolor="#e58139"] ;
644 -> 648 ;
649 [label="mode_of_shipment_Road <= 0.5\ngini = 0.49\nsamples = 10\nvalue = [8.54, 6.78]\nclass = [", fillcolor="#fae5d6"] ;
611 -> 649 ;
650 [label="prior_purchases <= 0.42\ngini = 0.48\nsamples = 9\nvalue = [8.54, 5.93]\nclass = [", fillcolor="#f7d8c2"] ;
649 -> 650 ;
651 [label="gini = 0.0\nsamples = 3\nvalue = [4.88, 0.0]\nclass = [", fillcolor="#e58139"] ;
650 -> 651 ;
652 [label="weight_in_gms <= 0.07\ngini = 0.47\nsamples = 6\nvalue = [3.66, 5.93]\nclass = 1", fillcolor="#b3daf5"] ;
650 -> 652 ;
653 [label="gini = 0.0\nsamples = 1\nvalue = [0.0, 2.54]\nclass = 1", fillcolor="#399de5"] ;
652 -> 653 ;
654 [label="cost_of_the_product <= 0.6\ngini = 0.5\nsamples = 5\nvalue = [3.66, 3.39]\nclass = [", fillcolor="#fdf6f0"] ;
652 -> 654 ;
655 [label="gini = 0.0\nsamples = 2\nvalue = [0.0, 2.54]\nclass = 1", fillcolor="#399de5"] ;
654 -> 655 ;
656 [label="customer_rating <= 0.5\ngini = 0.31\nsamples = 3\nvalue = [3.66, 0.85]\nclass = [", fillcolor="#eb9e67"] ;
654 -> 656 ;
657 [label="prior_purchases <= 0.58\ngini = 0.48\nsamples = 2\nvalue = [1.22, 0.85]\nclass = [", fillcolor="#f7d8c2"] ;
656 -> 657 ;
658 [label="gini = 0.0\nsamples = 1\nvalue = [1.22, 0.0]\nclass = [", fillcolor="#e58139"] ;
657 -> 658 ;
659 [label="gini = 0.0\nsamples = 1\nvalue = [0.0, 0.85]\nclass = 1", fillcolor="#399de5"] ;
657 -> 659 ;
660 [label="gini = 0.0\nsamples = 1\nvalue = [2.44, 0.0]\nclass = [", fillcolor="#e58139"] ;
656 -> 660 ;
661 [label="gini = -0.0\nsamples = 1\nvalue = [0.0, 0.85]\nclass = 1", fillcolor="#399de5"] ;
649 -> 661 ;
662 [label="cost_of_the_product <= 0.63\ngini = 0.09\nsamples = 13\nvalue = [32.95, 1.69]\nclass = [", fillcolor="#e68743"] ;
610 -> 662 ;
663 [label="gini = 0.0\nsamples = 6\nvalue = [23.19, 0.0]\nclass = [", fillcolor="#e58139"] ;
662 -> 663 ;
664 [label="customer_rating <= 0.62\ngini = 0.25\nsamples = 7\nvalue = [9.76, 1.69]\nclass = [", fillcolor="#ea975b"] ;
662 -> 664 ;
665 [label="gini = -0.0\nsamples = 5\nvalue = [7.32, 0.0]\nclass = [", fillcolor="#e58139"] ;
664 -> 665 ;
666 [label="prior_purchases <= 0.58\ngini = 0.48\nsamples = 2\nvalue = [2.44, 1.69]\nclass = [", fillcolor="#f7d8c2"] ;
664 -> 666 ;
667 [label="gini = 0.0\nsamples = 1\nvalue = [0.0, 1.69]\nclass = 1", fillcolor="#399de5"] ;
666 -> 667 ;
668 [label="gini = 0.0\nsamples = 1\nvalue = [2.44, 0.0]\nclass = [", fillcolor="#e58139"] ;
666 -> 668 ;
669 [label="prior_purchases <= 0.58\ngini = 0.44\nsamples = 158\nvalue = [174.51, 84.71]\nclass = [", fillcolor="#f2be99"] ;
609 -> 669 ;
670 [label="discount_offered <= 0.28\ngini = 0.43\nsamples = 145\nvalue = [164.75, 73.69]\nclass = [", fillcolor="#f1b992"] ;
669 -> 670 ;
671 [label="weight_in_gms <= 0.09\ngini = 0.42\nsamples = 142\nvalue = [164.75, 71.15]\nclass = [", fillcolor="#f0b78f"] ;
670 -> 671 ;
672 [label="cost_of_the_product <= 0.7\ngini = 0.41\nsamples = 139\nvalue = [164.75, 66.92]\nclass = [", fillcolor="#f0b489"] ;
671 -> 672 ;
673 [label="gini = 0.0\nsamples = 2\nvalue = [0.0, 1.69]\nclass = 1", fillcolor="#399de5"] ;
672 -> 673 ;
674 [label="discount_offered <= 0.06\ngini = 0.41\nsamples = 137\nvalue = [164.75, 65.22]\nclass = [", fillcolor="#efb387"] ;
672 -> 674 ;
675 [label="cost_of_the_product <= 0.96\ngini = 0.28\nsamples = 21\nvalue = [29.29, 5.93]\nclass = [", fillcolor="#ea9b61"] ;
674 -> 675 ;
676 [label="weight_in_gms <= 0.07\ngini = 0.19\nsamples = 18\nvalue = [28.07, 3.39]\nclass = [", fillcolor="#e89051"] ;
675 -> 676 ;
677 [label="warehouse_block_D <= 0.5\ngini = 0.0\nsamples = 13\nvalue = [24.41, 0.0]\nclass = [", fillcolor="#e58139"] ;
676 -> 677 ;
678 [label="gini = 0.0\nsamples = 12\nvalue = [23.19, 0.0]\nclass = [", fillcolor="#e58139"] ;
677 -> 678 ;
679 [label="gini = 0.0\nsamples = 1\nvalue = [1.22, 0.0]\nclass = [", fillcolor="#e58139"] ;
677 -> 679 ;
680 [label="weight_in_gms <= 0.08\ngini = 0.5\nsamples = 5\nvalue = [3.66, 3.39]\nclass = [", fillcolor="#fdf6f0"] ;
676 -> 680 ;
681 [label="gini = -0.0\nsamples = 3\nvalue = [0.0, 3.39]\nclass = 1", fillcolor="#399de5"] ;
680 -> 681 ;
682 [label="gini = 0.0\nsamples = 2\nvalue = [3.66, 0.0]\nclass = [", fillcolor="#e58139"] ;
680 -> 682 ;
683 [label="mode_of_shipment_Road <= 0.5\ngini = 0.44\nsamples = 3\nvalue = [1.22, 2.54]\nclass = 1", fillcolor="#98ccf1"] ;
675 -> 683 ;
684 [label="gini = 0.0\nsamples = 2\nvalue = [0.0, 2.54]\nclass = 1", fillcolor="#399de5"] ;
683 -> 684 ;
685 [label="gini = 0.0\nsamples = 1\nvalue = [1.22, 0.0]\nclass = [", fillcolor="#e58139"] ;
683 -> 685 ;
686 [label="customer_care_calls <= 0.9\ngini = 0.42\nsamples = 116\nvalue = [135.46, 59.29]\nclass = [", fillcolor="#f0b890"] ;
674 -> 686 ;
687 [label="weight_in_gms <= 0.03\ngini = 0.4\nsamples = 97\nvalue = [123.26, 46.59]\nclass = [", fillcolor="#efb184"] ;
686 -> 687 ;
688 [label="warehouse_block_D <= 0.5\ngini = 0.22\nsamples = 28\nvalue = [47.59, 6.78]\nclass = [", fillcolor="#e99355"] ;
687 -> 688 ;
689 [label="weight_in_gms <= 0.0\ngini = 0.27\nsamples = 23\nvalue = [35.39, 6.78]\nclass = [", fillcolor="#ea995f"] ;
688 -> 689 ;
690 [label="gini = 0.0\nsamples = 4\nvalue = [8.54, 0.0]\nclass = [", fillcolor="#e58139"] ;
689 -> 690 ;
691 [label="weight_in_gms <= 0.01\ngini = 0.32\nsamples = 19\nvalue = [26.85, 6.78]\nclass = [", fillcolor="#eca16b"] ;
689 -> 691 ;
692 [label="gini = 0.0\nsamples = 2\nvalue = [0.0, 1.69]\nclass = 1", fillcolor="#399de5"] ;
691 -> 692 ;
693 [label="mode_of_shipment_Road <= 0.5\ngini = 0.27\nsamples = 17\nvalue = [26.85, 5.08]\nclass = [", fillcolor="#ea995e"] ;
691 -> 693 ;
694 [label="discount_offered <= 0.13\ngini = 0.24\nsamples = 16\nvalue = [26.85, 4.24]\nclass = [", fillcolor="#e99558"] ;
693 -> 694 ;
695 [label="prior_purchases <= 0.42\ngini = 0.07\nsamples = 10\nvalue = [21.97, 0.85]\nclass = [", fillcolor="#e68641"] ;
694 -> 695 ;
696 [label="cost_of_the_product <= 0.84\ngini = 0.19\nsamples = 5\nvalue = [7.32, 0.85]\nclass = [", fillcolor="#e89050"] ;
695 -> 696 ;
697 [label="gini = 0.0\nsamples = 2\nvalue = [3.66, 0.0]\nclass = [", fillcolor="#e58139"] ;
696 -> 697 ;
698 [label="weight_in_gms <= 0.02\ngini = 0.31\nsamples = 3\nvalue = [3.66, 0.85]\nclass = [", fillcolor="#eb9e67"] ;
696 -> 698 ;
699 [label="cost_of_the_product <= 0.92\ngini = 0.48\nsamples = 2\nvalue = [1.22, 0.85]\nclass = [", fillcolor="#f7d8c2"] ;
698 -> 699 ;
700 [label="gini = 0.0\nsamples = 1\nvalue = [0.0, 0.85]\nclass = 1", fillcolor="#399de5"] ;
699 -> 700 ;
701 [label="gini = 0.0\nsamples = 1\nvalue = [1.22, 0.0]\nclass = [", fillcolor="#e58139"] ;
699 -> 701 ;
702 [label="gini = 0.0\nsamples = 1\nvalue = [2.44, 0.0]\nclass = [", fillcolor="#e58139"] ;
698 -> 702 ;
703 [label="gini = -0.0\nsamples = 5\nvalue = [14.64, 0.0]\nclass = [", fillcolor="#e58139"] ;
695 -> 703 ;
704 [label="weight_in_gms <= 0.02\ngini = 0.48\nsamples = 6\nvalue = [4.88, 3.39]\nclass = [", fillcolor="#f7d8c2"] ;
694 -> 704 ;
705 [label="customer_rating <= 0.62\ngini = 0.39\nsamples = 4\nvalue = [1.22, 3.39]\nclass = 1", fillcolor="#80c0ee"] ;
704 -> 705 ;
706 [label="gini = 0.0\nsamples = 2\nvalue = [0.0, 2.54]\nclass = 1", fillcolor="#399de5"] ;
705 -> 706 ;
707 [label="customer_care_calls <= 0.7\ngini = 0.48\nsamples = 2\nvalue = [1.22, 0.85]\nclass = [", fillcolor="#f7d8c2"] ;
705 -> 707 ;
708 [label="gini = 0.0\nsamples = 1\nvalue = [0.0, 0.85]\nclass = 1", fillcolor="#399de5"] ;
707 -> 708 ;
709 [label="gini = 0.0\nsamples = 1\nvalue = [1.22, 0.0]\nclass = [", fillcolor="#e58139"] ;
707 -> 709 ;
710 [label="gini = -0.0\nsamples = 2\nvalue = [3.66, 0.0]\nclass = [", fillcolor="#e58139"] ;
704 -> 710 ;
711 [label="gini = 0.0\nsamples = 1\nvalue = [0.0, 0.85]\nclass = 1", fillcolor="#399de5"] ;
693 -> 711 ;
712 [label="gini = 0.0\nsamples = 5\nvalue = [12.2, 0.0]\nclass = [", fillcolor="#e58139"] ;
688 -> 712 ;
713 [label="cost_of_the_product <= 0.77\ngini = 0.45\nsamples = 69\nvalue = [75.66, 39.81]\nclass = [", fillcolor="#f3c3a1"] ;
687 -> 713 ;
714 [label="weight_in_gms <= 0.07\ngini = 0.49\nsamples = 21\nvalue = [21.97, 16.94]\nclass = [", fillcolor="#f9e2d2"] ;
713 -> 714 ;
715 [label="discount_offered <= 0.11\ngini = 0.26\nsamples = 11\nvalue = [2.44, 13.55]\nclass = 1", fillcolor="#5dafea"] ;
714 -> 715 ;
716 [label="gini = 0.0\nsamples = 5\nvalue = [0.0, 6.78]\nclass = 1", fillcolor="#399de5"] ;
715 -> 716 ;
717 [label="customer_rating <= 0.62\ngini = 0.39\nsamples = 6\nvalue = [2.44, 6.78]\nclass = 1", fillcolor="#80c0ee"] ;
715 -> 717 ;
718 [label="gini = 0.0\nsamples = 2\nvalue = [0.0, 2.54]\nclass = 1", fillcolor="#399de5"] ;
717 -> 718 ;
719 [label="weight_in_gms <= 0.05\ngini = 0.46\nsamples = 4\nvalue = [2.44, 4.24]\nclass = 1", fillcolor="#abd5f4"] ;
717 -> 719 ;
720 [label="customer_care_calls <= 0.7\ngini = 0.35\nsamples = 3\nvalue = [1.22, 4.24]\nclass = 1", fillcolor="#72b9ec"] ;
719 -> 720 ;
721 [label="gini = 0.0\nsamples = 1\nvalue = [0.0, 1.69]\nclass = 1", fillcolor="#399de5"] ;
720 -> 721 ;
722 [label="weight_in_gms <= 0.04\ngini = 0.44\nsamples = 2\nvalue = [1.22, 2.54]\nclass = 1", fillcolor="#98ccf1"] ;
720 -> 722 ;
723 [label="gini = 0.0\nsamples = 1\nvalue = [0.0, 2.54]\nclass = 1", fillcolor="#399de5"] ;
722 -> 723 ;
724 [label="gini = -0.0\nsamples = 1\nvalue = [1.22, 0.0]\nclass = [", fillcolor="#e58139"] ;
722 -> 724 ;
725 [label="gini = -0.0\nsamples = 1\nvalue = [1.22, 0.0]\nclass = [", fillcolor="#e58139"] ;
719 -> 725 ;
726 [label="customer_rating <= 0.12\ngini = 0.25\nsamples = 10\nvalue = [19.53, 3.39]\nclass = [", fillcolor="#ea975b"] ;
714 -> 726 ;
727 [label="discount_offered <= 0.14\ngini = 0.5\nsamples = 2\nvalue = [2.44, 2.54]\nclass = 1", fillcolor="#f7fbfe"] ;
726 -> 727 ;
728 [label="gini = 0.0\nsamples = 1\nvalue = [2.44, 0.0]\nclass = [", fillcolor="#e58139"] ;
727 -> 728 ;
729 [label="gini = -0.0\nsamples = 1\nvalue = [0.0, 2.54]\nclass = 1", fillcolor="#399de5"] ;
727 -> 729 ;
730 [label="weight_in_gms <= 0.08\ngini = 0.09\nsamples = 8\nvalue = [17.08, 0.85]\nclass = [", fillcolor="#e68743"] ;
726 -> 730 ;
731 [label="discount_offered <= 0.09\ngini = 0.0\nsamples = 6\nvalue = [12.2, 0.0]\nclass = [", fillcolor="#e58139"] ;
730 -> 731 ;
732 [label="gini = 0.0\nsamples = 2\nvalue = [4.88, 0.0]\nclass = [", fillcolor="#e58139"] ;
731 -> 732 ;
733 [label="gini = 0.0\nsamples = 4\nvalue = [7.32, 0.0]\nclass = [", fillcolor="#e58139"] ;
731 -> 733 ;
734 [label="cost_of_the_product <= 0.73\ngini = 0.25\nsamples = 2\nvalue = [4.88, 0.85]\nclass = [", fillcolor="#ea975b"] ;
730 -> 734 ;
735 [label="gini = 0.0\nsamples = 1\nvalue = [0.0, 0.85]\nclass = 1", fillcolor="#399de5"] ;
734 -> 735 ;
736 [label="gini = 0.0\nsamples = 1\nvalue = [4.88, 0.0]\nclass = [", fillcolor="#e58139"] ;
734 -> 736 ;
737 [label="weight_in_gms <= 0.04\ngini = 0.42\nsamples = 48\nvalue = [53.7, 22.87]\nclass = [", fillcolor="#f0b78d"] ;
713 -> 737 ;
738 [label="mode_of_shipment_Road <= 0.5\ngini = 0.49\nsamples = 12\nvalue = [7.32, 9.32]\nclass = 1", fillcolor="#d5eaf9"] ;
737 -> 738 ;
739 [label="customer_rating <= 0.88\ngini = 0.5\nsamples = 11\nvalue = [7.32, 7.62]\nclass = 1", fillcolor="#f7fbfe"] ;
738 -> 739 ;
740 [label="customer_rating <= 0.12\ngini = 0.43\nsamples = 8\nvalue = [7.32, 3.39]\nclass = [", fillcolor="#f1bb95"] ;
739 -> 740 ;
741 [label="gini = 0.0\nsamples = 2\nvalue = [3.66, 0.0]\nclass = [", fillcolor="#e58139"] ;
740 -> 741 ;
742 [label="customer_care_calls <= 0.7\ngini = 0.5\nsamples = 6\nvalue = [3.66, 3.39]\nclass = [", fillcolor="#fdf6f0"] ;
740 -> 742 ;
743 [label="gini = 0.0\nsamples = 1\nvalue = [1.22, 0.0]\nclass = [", fillcolor="#e58139"] ;
742 -> 743 ;
744 [label="cost_of_the_product <= 0.87\ngini = 0.49\nsamples = 5\nvalue = [2.44, 3.39]\nclass = 1", fillcolor="#c8e4f8"] ;
742 -> 744 ;
745 [label="gini = 0.0\nsamples = 2\nvalue = [2.44, 0.0]\nclass = [", fillcolor="#e58139"] ;
744 -> 745 ;
746 [label="cost_of_the_product <= 0.91\ngini = 0.0\nsamples = 3\nvalue = [0.0, 3.39]\nclass = 1", fillcolor="#399de5"] ;
744 -> 746 ;
747 [label="gini = 0.0\nsamples = 1\nvalue = [0.0, 0.85]\nclass = 1", fillcolor="#399de5"] ;
746 -> 747 ;
748 [label="gini = 0.0\nsamples = 2\nvalue = [0.0, 2.54]\nclass = 1", fillcolor="#399de5"] ;
746 -> 748 ;
749 [label="gini = -0.0\nsamples = 3\nvalue = [0.0, 4.24]\nclass = 1", fillcolor="#399de5"] ;
739 -> 749 ;
750 [label="gini = 0.0\nsamples = 1\nvalue = [0.0, 1.69]\nclass = 1", fillcolor="#399de5"] ;
738 -> 750 ;
751 [label="customer_care_calls <= 0.5\ngini = 0.35\nsamples = 36\nvalue = [46.37, 13.55]\nclass = [", fillcolor="#eda673"] ;
737 -> 751 ;
752 [label="customer_rating <= 0.12\ngini = 0.46\nsamples = 3\nvalue = [2.44, 4.24]\nclass = 1", fillcolor="#abd5f4"] ;
751 -> 752 ;
753 [label="gini = 0.0\nsamples = 2\nvalue = [0.0, 4.24]\nclass = 1", fillcolor="#399de5"] ;
752 -> 753 ;
754 [label="gini = -0.0\nsamples = 1\nvalue = [2.44, 0.0]\nclass = [", fillcolor="#e58139"] ;
752 -> 754 ;
755 [label="customer_rating <= 0.38\ngini = 0.29\nsamples = 33\nvalue = [43.93, 9.32]\nclass = [", fillcolor="#eb9c63"] ;
751 -> 755 ;
756 [label="prior_purchases <= 0.42\ngini = 0.11\nsamples = 7\nvalue = [13.42, 0.85]\nclass = [", fillcolor="#e78945"] ;
755 -> 756 ;
757 [label="gini = 0.0\nsamples = 4\nvalue = [8.54, 0.0]\nclass = [", fillcolor="#e58139"] ;
756 -> 757 ;
758 [label="customer_care_calls <= 0.7\ngini = 0.25\nsamples = 3\nvalue = [4.88, 0.85]\nclass = [", fillcolor="#ea975b"] ;
756 -> 758 ;
759 [label="gini = 0.0\nsamples = 1\nvalue = [1.22, 0.0]\nclass = [", fillcolor="#e58139"] ;
758 -> 759 ;
760 [label="discount_offered <= 0.1\ngini = 0.31\nsamples = 2\nvalue = [3.66, 0.85]\nclass = [", fillcolor="#eb9e67"] ;
758 -> 760 ;
761 [label="gini = 0.0\nsamples = 1\nvalue = [3.66, 0.0]\nclass = [", fillcolor="#e58139"] ;
760 -> 761 ;
762 [label="gini = 0.0\nsamples = 1\nvalue = [0.0, 0.85]\nclass = 1", fillcolor="#399de5"] ;
760 -> 762 ;
763 [label="mode_of_shipment_Road <= 0.5\ngini = 0.34\nsamples = 26\nvalue = [30.51, 8.47]\nclass = [", fillcolor="#eca470"] ;
755 -> 763 ;
764 [label="weight_in_gms <= 0.05\ngini = 0.3\nsamples = 22\nvalue = [26.85, 5.93]\nclass = [", fillcolor="#eb9d65"] ;
763 -> 764 ;
765 [label="gini = 0.0\nsamples = 1\nvalue = [0.0, 1.69]\nclass = 1", fillcolor="#399de5"] ;
764 -> 765 ;
766 [label="weight_in_gms <= 0.05\ngini = 0.24\nsamples = 21\nvalue = [26.85, 4.24]\nclass = [", fillcolor="#e99558"] ;
764 -> 766 ;
767 [label="gini = 0.0\nsamples = 3\nvalue = [4.88, 0.0]\nclass = [", fillcolor="#e58139"] ;
766 -> 767 ;
768 [label="weight_in_gms <= 0.05\ngini = 0.27\nsamples = 18\nvalue = [21.97, 4.24]\nclass = [", fillcolor="#ea995f"] ;
766 -> 768 ;
769 [label="gini = 0.0\nsamples = 1\nvalue = [0.0, 0.85]\nclass = 1", fillcolor="#399de5"] ;
768 -> 769 ;
770 [label="discount_offered <= 0.14\ngini = 0.23\nsamples = 17\nvalue = [21.97, 3.39]\nclass = [", fillcolor="#e99458"] ;
768 -> 770 ;
771 [label="prior_purchases <= 0.42\ngini = 0.15\nsamples = 15\nvalue = [19.53, 1.69]\nclass = [", fillcolor="#e78c4a"] ;
770 -> 771 ;
772 [label="customer_rating <= 0.62\ngini = 0.17\nsamples = 13\nvalue = [15.86, 1.69]\nclass = [", fillcolor="#e88e4e"] ;
771 -> 772 ;
773 [label="weight_in_gms <= 0.07\ngini = 0.38\nsamples = 6\nvalue = [4.88, 1.69]\nclass = [", fillcolor="#eead7e"] ;
772 -> 773 ;
774 [label="warehouse_block_D <= 0.5\ngini = 0.25\nsamples = 5\nvalue = [4.88, 0.85]\nclass = [", fillcolor="#ea975b"] ;
773 -> 774 ;
775 [label="discount_offered <= 0.1\ngini = 0.38\nsamples = 3\nvalue = [2.44, 0.85]\nclass = [", fillcolor="#eead7e"] ;
774 -> 775 ;
776 [label="gini = 0.0\nsamples = 1\nvalue = [1.22, 0.0]\nclass = [", fillcolor="#e58139"] ;
775 -> 776 ;
777 [label="weight_in_gms <= 0.06\ngini = 0.48\nsamples = 2\nvalue = [1.22, 0.85]\nclass = [", fillcolor="#f7d8c2"] ;
775 -> 777 ;
778 [label="gini = 0.0\nsamples = 1\nvalue = [1.22, 0.0]\nclass = [", fillcolor="#e58139"] ;
777 -> 778 ;
779 [label="gini = 0.0\nsamples = 1\nvalue = [0.0, 0.85]\nclass = 1", fillcolor="#399de5"] ;
777 -> 779 ;
780 [label="gini = 0.0\nsamples = 2\nvalue = [2.44, 0.0]\nclass = [", fillcolor="#e58139"] ;
774 -> 780 ;
781 [label="gini = 0.0\nsamples = 1\nvalue = [0.0, 0.85]\nclass = 1", fillcolor="#399de5"] ;
773 -> 781 ;
782 [label="gini = -0.0\nsamples = 7\nvalue = [10.98, 0.0]\nclass = [", fillcolor="#e58139"] ;
772 -> 782 ;
783 [label="customer_care_calls <= 0.7\ngini = 0.0\nsamples = 2\nvalue = [3.66, 0.0]\nclass = [", fillcolor="#e58139"] ;
771 -> 783 ;
784 [label="gini = 0.0\nsamples = 1\nvalue = [2.44, 0.0]\nclass = [", fillcolor="#e58139"] ;
783 -> 784 ;
785 [label="gini = 0.0\nsamples = 1\nvalue = [1.22, 0.0]\nclass = [", fillcolor="#e58139"] ;
783 -> 785 ;
786 [label="customer_rating <= 0.62\ngini = 0.48\nsamples = 2\nvalue = [2.44, 1.69]\nclass = [", fillcolor="#f7d8c2"] ;
770 -> 786 ;
787 [label="gini = 0.0\nsamples = 1\nvalue = [2.44, 0.0]\nclass = [", fillcolor="#e58139"] ;
786 -> 787 ;
788 [label="gini = 0.0\nsamples = 1\nvalue = [0.0, 1.69]\nclass = 1", fillcolor="#399de5"] ;
786 -> 788 ;
789 [label="cost_of_the_product <= 0.93\ngini = 0.48\nsamples = 4\nvalue = [3.66, 2.54]\nclass = [", fillcolor="#f7d8c2"] ;
763 -> 789 ;
790 [label="gini = 0.0\nsamples = 2\nvalue = [3.66, 0.0]\nclass = [", fillcolor="#e58139"] ;
789 -> 790 ;
791 [label="gini = 0.0\nsamples = 2\nvalue = [0.0, 2.54]\nclass = 1", fillcolor="#399de5"] ;
789 -> 791 ;
792 [label="prior_purchases <= 0.42\ngini = 0.5\nsamples = 19\nvalue = [12.2, 12.71]\nclass = 1", fillcolor="#f7fbfe"] ;
686 -> 792 ;
793 [label="cost_of_the_product <= 0.86\ngini = 0.5\nsamples = 15\nvalue = [9.76, 10.16]\nclass = 1", fillcolor="#f7fbfe"] ;
792 -> 793 ;
794 [label="customer_rating <= 0.88\ngini = 0.31\nsamples = 5\nvalue = [1.22, 5.08]\nclass = 1", fillcolor="#69b5eb"] ;
793 -> 794 ;
795 [label="customer_rating <= 0.5\ngini = 0.49\nsamples = 3\nvalue = [1.22, 1.69]\nclass = 1", fillcolor="#c8e4f8"] ;
794 -> 795 ;
796 [label="cost_of_the_product <= 0.85\ngini = 0.0\nsamples = 2\nvalue = [0.0, 1.69]\nclass = 1", fillcolor="#399de5"] ;
795 -> 796 ;
797 [label="gini = 0.0\nsamples = 1\nvalue = [0.0, 0.85]\nclass = 1", fillcolor="#399de5"] ;
796 -> 797 ;
798 [label="gini = 0.0\nsamples = 1\nvalue = [0.0, 0.85]\nclass = 1", fillcolor="#399de5"] ;
796 -> 798 ;
799 [label="gini = 0.0\nsamples = 1\nvalue = [1.22, 0.0]\nclass = [", fillcolor="#e58139"] ;
795 -> 799 ;
800 [label="gini = -0.0\nsamples = 2\nvalue = [0.0, 3.39]\nclass = 1", fillcolor="#399de5"] ;
794 -> 800 ;
801 [label="mode_of_shipment_Road <= 0.5\ngini = 0.47\nsamples = 10\nvalue = [8.54, 5.08]\nclass = [", fillcolor="#f4ccaf"] ;
793 -> 801 ;
802 [label="weight_in_gms <= 0.02\ngini = 0.35\nsamples = 8\nvalue = [8.54, 2.54]\nclass = [", fillcolor="#eda674"] ;
801 -> 802 ;
803 [label="warehouse_block_D <= 0.5\ngini = 0.44\nsamples = 4\nvalue = [1.22, 2.54]\nclass = 1", fillcolor="#98ccf1"] ;
802 -> 803 ;
804 [label="cost_of_the_product <= 0.93\ngini = 0.0\nsamples = 3\nvalue = [0.0, 2.54]\nclass = 1", fillcolor="#399de5"] ;
803 -> 804 ;
805 [label="gini = 0.0\nsamples = 1\nvalue = [0.0, 0.85]\nclass = 1", fillcolor="#399de5"] ;
804 -> 805 ;
806 [label="gini = 0.0\nsamples = 2\nvalue = [0.0, 1.69]\nclass = 1", fillcolor="#399de5"] ;
804 -> 806 ;
807 [label="gini = -0.0\nsamples = 1\nvalue = [1.22, 0.0]\nclass = [", fillcolor="#e58139"] ;
803 -> 807 ;
808 [label="gini = -0.0\nsamples = 4\nvalue = [7.32, 0.0]\nclass = [", fillcolor="#e58139"] ;
802 -> 808 ;
809 [label="gini = 0.0\nsamples = 2\nvalue = [0.0, 2.54]\nclass = 1", fillcolor="#399de5"] ;
801 -> 809 ;
810 [label="mode_of_shipment_Road <= 0.5\ngini = 0.5\nsamples = 4\nvalue = [2.44, 2.54]\nclass = 1", fillcolor="#f7fbfe"] ;
792 -> 810 ;
811 [label="discount_offered <= 0.08\ngini = 0.44\nsamples = 3\nvalue = [1.22, 2.54]\nclass = 1", fillcolor="#98ccf1"] ;
810 -> 811 ;
812 [label="gini = 0.0\nsamples = 1\nvalue = [1.22, 0.0]\nclass = [", fillcolor="#e58139"] ;
811 -> 812 ;
813 [label="gini = 0.0\nsamples = 2\nvalue = [0.0, 2.54]\nclass = 1", fillcolor="#399de5"] ;
811 -> 813 ;
814 [label="gini = -0.0\nsamples = 1\nvalue = [1.22, 0.0]\nclass = [", fillcolor="#e58139"] ;
810 -> 814 ;
815 [label="customer_care_calls <= 0.6\ngini = 0.0\nsamples = 3\nvalue = [0.0, 4.24]\nclass = 1", fillcolor="#399de5"] ;
671 -> 815 ;
816 [label="gini = 0.0\nsamples = 1\nvalue = [0.0, 0.85]\nclass = 1", fillcolor="#399de5"] ;
815 -> 816 ;
817 [label="gini = 0.0\nsamples = 2\nvalue = [0.0, 3.39]\nclass = 1", fillcolor="#399de5"] ;
815 -> 817 ;
818 [label="discount_offered <= 0.63\ngini = 0.0\nsamples = 3\nvalue = [0.0, 2.54]\nclass = 1", fillcolor="#399de5"] ;
670 -> 818 ;
819 [label="gini = 0.0\nsamples = 1\nvalue = [0.0, 0.85]\nclass = 1", fillcolor="#399de5"] ;
818 -> 819 ;
820 [label="gini = 0.0\nsamples = 2\nvalue = [0.0, 1.69]\nclass = 1", fillcolor="#399de5"] ;
818 -> 820 ;
821 [label="discount_offered <= 0.13\ngini = 0.5\nsamples = 13\nvalue = [9.76, 11.01]\nclass = 1", fillcolor="#e9f4fc"] ;
669 -> 821 ;
822 [label="discount_offered <= 0.08\ngini = 0.44\nsamples = 10\nvalue = [4.88, 10.16]\nclass = 1", fillcolor="#98ccf1"] ;
821 -> 822 ;
823 [label="cost_of_the_product <= 0.74\ngini = 0.31\nsamples = 4\nvalue = [3.66, 0.85]\nclass = [", fillcolor="#eb9e67"] ;
822 -> 823 ;
824 [label="gini = 0.0\nsamples = 3\nvalue = [3.66, 0.0]\nclass = [", fillcolor="#e58139"] ;
823 -> 824 ;
825 [label="gini = 0.0\nsamples = 1\nvalue = [0.0, 0.85]\nclass = 1", fillcolor="#399de5"] ;
823 -> 825 ;
826 [label="warehouse_block_D <= 0.5\ngini = 0.2\nsamples = 6\nvalue = [1.22, 9.32]\nclass = 1", fillcolor="#53aae8"] ;
822 -> 826 ;
827 [label="customer_rating <= 0.38\ngini = 0.26\nsamples = 4\nvalue = [1.22, 6.78]\nclass = 1", fillcolor="#5dafea"] ;
826 -> 827 ;
828 [label="gini = 0.0\nsamples = 2\nvalue = [0.0, 3.39]\nclass = 1", fillcolor="#399de5"] ;
827 -> 828 ;
